%YAML:1.0
my_svm: !!opencv-ml-svm
   svm_type: C_SVC
   kernel: { type:RBF, gamma:2.2500000000000003e-03 }
   C: 1.2500000000000000e+01
   term_criteria: { epsilon:1.1920928955078125e-07, iterations:1000 }
   var_all: 192
   var_count: 192
   class_count: 5
   class_labels: !!opencv-matrix
      rows: 1
      cols: 5
      dt: i
      data: [ 0, 1, 2, 3, 4 ]
   sv_total: 753
   support_vectors:
      - [ 1.30254197e+00, 2.08261919e+00, 1.24845850e+00,
          -7.20916465e-02, 8.46673608e-01, 2.21197939e+00,
          -6.16916835e-01, 2.57699275e+00, -2.22648010e-01,
          2.54839808e-01, 2.34021735e+00, 1.23503363e+00, 2.81668496e+00,
          4.97720629e-01, 3.83505225e+00, 6.89097345e-01, 2.26709080e+00,
          -3.28210503e-01, 1.74202597e+00, 1.54424980e-01,
          2.05748439e+00, 2.77223468e-01, 2.78730440e+00, 3.93704343e+00,
          1.63222253e+00, 1.40792024e+00, -4.12416279e-01,
          1.03483570e+00, 5.25376685e-02, 8.36738288e-01, 1.90131712e+00,
          -4.32373703e-01, 8.00757051e-01, -2.70595402e-01,
          3.49356651e+00, 3.00462991e-01, 4.51372719e+00, 1.06125009e+00,
          6.61702156e+00, -1.31019562e-01, 4.81668663e+00,
          1.27413380e+00, 1.55024934e+00, 2.91925049e+00, 5.11416292e+00,
          1.53271213e-01, 1.06509552e+01, 6.19502640e+00,
          -7.55405128e-01, 2.37665868e+00, 4.77299273e-01,
          -4.24892247e-01, 2.91890764e+00, 1.22470319e+00,
          3.51835561e+00, -1.15529448e-01, 1.54438123e-01,
          -1.94802374e-01, -1.09934047e-01, 2.50799608e+00,
          2.32412863e+00, 5.27647400e+00, 2.21112204e+00, 3.00005388e+00,
          -1.81429192e-01, 1.90435135e+00, -5.81401527e-01,
          1.10848904e+00, 3.98529023e-01, 1.72132528e+00,
          -3.56877148e-01, 8.08465862e+00, 1.53722382e+00,
          1.24032485e+00, -1.03324965e-01, 4.17624146e-01,
          1.15848752e-02, 6.34721100e-01, 9.96384546e-02, 2.15578988e-01,
          6.26598954e-01, 4.10077363e-01, -4.55353796e-01,
          -1.88713506e-01, -4.90831852e-01, -5.27763009e-01,
          2.80924410e-01, 9.82851505e-01, -2.61368871e-01,
          9.41703856e-01, 6.22290790e-01, 1.31168520e+00, 3.25895476e+00,
          3.12873554e+00, 7.18408442e+00, 9.11329937e+00, 2.92738050e-01,
          -1.19973779e-01, 3.65441084e-01, 4.07127887e-01,
          2.67666531e+00, -4.47763264e-01, 4.14522797e-01,
          -5.91797292e-01, 1.98722672e+00, 4.43923903e+00,
          1.35738266e+00, 2.21218973e-01, 1.21814728e+00, 6.75385296e-01,
          2.81751370e+00, 1.40423441e+00, 1.24705744e+00, 1.91097748e+00,
          7.06077635e-01, 7.65366614e-01, -1.83137078e-02,
          5.25573194e-01, -1.38968259e-01, 6.04121733e+00,
          4.73405313e+00, 2.45612240e+00, 1.64078280e-01, 1.28801867e-01,
          1.81383088e-01, -3.98983270e-01, 4.78928000e-01,
          6.92331612e-01, 1.53293002e+00, 4.10388327e+00, 6.15464807e-01,
          -1.99832231e-01, 3.47705901e-01, 2.60818332e-01,
          4.99511814e+00, 4.40692043e+00, 4.19719219e+00, 7.48461345e-04,
          1.47781491e+00, -5.37583530e-01, 1.92508185e+00,
          -4.12703723e-01, 9.38368416e+00, 5.19092703e+00,
          1.30600345e+00, 5.04036248e-01, 1.70011663e+00,
          -1.85048789e-01, 1.61816478e+00, 6.40085340e-01,
          4.91288841e-01, 3.01088281e-02, -1.09100185e-01,
          2.19817853e+00, 4.23060942e+00, 3.61876562e-02, 3.04508829e+00,
          -3.97575200e-01, 2.29875192e-01, 9.40515339e-01,
          1.38040221e+00, -5.00523686e-01, 2.20645595e+00,
          2.19562843e-01, 2.03873277e+00, 1.34537911e+00, 1.81392205e+00,
          1.33090115e+00, 4.90935117e-01, 3.16778749e-01, 6.01499677e-01,
          -5.36551356e-01, 4.81393516e-01, -1.92449048e-01,
          1.20070302e+00, 5.86642325e-02, 5.68346322e-01,
          -2.47410774e-01, 9.48860466e-01, -2.02147007e-01,
          7.69806623e-01, -4.20393646e-01, 2.48570609e+00,
          2.92458355e-01, 2.49439049e+00, 1.51063219e-01, 1.96833122e+00,
          2.93240339e-01, 5.18606567e+00, -5.34340680e-01,
          1.07022533e+01, 4.54246187e+00 ]
      - [ 1.73840320e+00, -3.53153139e-01, 3.42437238e-01,
          -3.21910292e-01, 2.01197013e-01, -2.39283264e-01,
          -4.51082319e-01, 2.13500455e-01, -4.27943498e-01,
          1.59771070e-01, 1.52933272e-02, -1.13032840e-01,
          6.42178357e-01, -3.59497786e-01, 7.36919224e-01,
          7.53392428e-02, 7.88066015e-02, 3.05855930e-01,
          -5.52572846e-01, 4.86200824e-02, -3.08130533e-01,
          -3.16402376e-01, 3.42891753e-01, -3.68407845e-01,
          6.17238879e-01, 2.13860941e+00, 1.33062756e+00, 6.72550559e-01,
          2.72542119e-01, 1.66849568e-01, 8.29349637e-01, 6.53153518e-03,
          7.43580282e-01, 5.33016860e-01, 4.45161104e-01, 6.37162745e-01,
          7.67332673e-01, 5.29448032e-01, 1.88132596e+00, 6.92124844e-01,
          4.07450151e+00, 1.07001305e+00, 2.88918734e+00,
          -4.94114943e-02, 2.58261156e+00, 3.04671973e-01,
          1.65473327e-01, 1.71256244e+00, -1.23581398e+00,
          1.26486731e+00, 6.73949897e-01, 1.61247998e-01, 2.69429177e-01,
          4.97947223e-02, 1.75820127e-01, 7.99833894e-01, 1.50015843e+00,
          -4.31042075e-01, -2.22517386e-01, 3.84504467e-01,
          3.46401274e-01, 9.47588503e-01, 1.30977678e+00, 1.86322063e-01,
          -6.04507104e-02, 4.64549839e-01, -1.26433790e-01,
          3.63151401e-01, 3.94552976e-01, 6.02479056e-02,
          -4.51847196e-01, 3.94704193e-02, 5.42975292e-02,
          3.49173594e+00, 3.31377745e-01, 7.13849723e-01,
          -1.91469237e-01, -4.02541310e-01, -4.02962714e-01,
          2.92081654e-01, 1.24332345e+00, 5.57554187e-03, 3.38067710e-01,
          -4.51440662e-01, -4.70096022e-01, -2.95639724e-01,
          -5.20730615e-01, -1.09785264e-02, 7.02273190e-01,
          -1.01493314e-01, 1.39942145e+00, 6.94438279e-01,
          5.37167251e-01, 2.58836776e-01, -4.26124409e-03,
          1.82731497e+00, -7.80677855e-01, 5.76162517e-01,
          -4.76391077e-01, -7.23119900e-02, -9.64759663e-02,
          -8.56088381e-03, -3.59791726e-01, 7.86551058e-01,
          4.78076130e-01, -4.04073626e-01, 1.32863688e+00,
          1.83992791e+00, 2.64620233e+00, 2.10749817e+00, 1.17279708e+00,
          2.26127923e-01, -5.00680566e-01, -5.47932148e-01,
          -5.94734132e-01, -2.33435199e-01, -3.83051872e-01,
          -3.12227458e-01, 3.30580145e-01, 8.32809210e-01,
          1.09219432e+00, 9.27892327e-01, 1.85431719e+00, 1.25673816e-01,
          2.20618650e-01, 2.11316541e-01, 5.70885837e-01, 1.27199709e-01,
          8.90188456e-01, 1.31397831e+00, 4.41992253e-01, 1.68093693e+00,
          1.04122412e+00, 3.95835787e-01, 1.38465166e+00, 2.19003081e-01,
          -4.45104361e-01, 1.11286771e+00, 3.77060980e-01,
          1.17842519e+00, 1.35868025e+00, 5.19625843e-01, 4.23877835e-01,
          1.87313959e-01, 8.12300563e-01, 1.64437723e+00, 1.41582823e+00,
          -1.41694769e-01, 3.98587704e-01, -4.39175993e-01,
          3.44871283e-01, 3.99942517e-01, 6.71655715e-01, 8.05468023e-01,
          -3.49600703e-01, 3.55604403e-02, -6.40403271e-01,
          7.68733323e-01, 1.19885480e+00, 3.02261859e-01,
          -4.37953919e-01, 4.58142459e-01, -5.53918958e-01,
          -1.04910754e-01, -2.91080564e-01, -5.54931343e-01,
          2.80742273e-02, -1.18399337e-01, -3.40943485e-01,
          2.81747508e+00, 1.17053580e+00, -1.57248750e-01,
          -4.71104324e-01, -2.36392999e-03, 2.40617231e-01,
          -3.97451967e-01, 6.49909854e-01, -2.51578063e-01,
          2.05033869e-01, -4.92844075e-01, -1.46823585e-01,
          -2.84396142e-01, 4.31164742e-01, -1.29824728e-01,
          1.96047187e+00, 3.34372491e-01, 1.80009961e+00,
          -2.62003183e-01, 2.22274399e+00, 1.02619016e+00,
          1.46297485e-01, 1.91796684e+00 ]
      - [ 1.63916337e+00, 3.28756511e-01, 8.75596344e-01,
          -1.59098402e-01, 1.47159672e+00, 3.95548195e-01,
          1.73082960e+00, 5.13338208e-01, 1.22719717e+00,
          -4.81940389e-01, -3.14788312e-01, -1.65147305e-01,
          5.28801560e-01, 9.60850865e-02, 1.88694882e+00, 3.65765661e-01,
          1.16292596e+00, 9.34852183e-01, 9.64001000e-01, 1.14499899e-02,
          7.01179564e-01, 4.27487791e-01, 3.81823003e-01, 1.45405078e+00,
          -3.08399051e-01, 2.93308830e+00, 2.77032948e+00,
          2.43822432e+00, 1.24079382e+00, 3.40875387e-01, 2.59261084e+00,
          -2.32541025e-01, 4.02153969e+00, 1.25501990e-01,
          2.13040400e+00, 2.09165668e+00, 1.44201672e+00, 2.49086404e+00,
          2.84688878e+00, -1.15718178e-01, 2.71405458e+00,
          1.98533571e+00, 3.92536759e+00, 1.14775956e+00, 5.48017073e+00,
          5.27251005e-01, 1.87879515e+00, 3.56926411e-01,
          -6.43296242e-01, -2.74672866e-01, 2.13476680e-02,
          -3.76978070e-01, 8.59685391e-02, 1.50169897e+00,
          3.34733844e-01, 7.42223501e-01, -1.75526008e-01,
          1.81485236e+00, 1.62775624e+00, 2.05981708e+00, 1.02770030e+00,
          1.64970040e+00, 6.20138347e-01, 1.27925730e+00,
          -6.66860878e-01, 2.73797941e+00, -7.81852528e-02,
          3.42361832e+00, 8.69890079e-02, 2.17075109e+00, 8.44888687e-01,
          1.65695524e+00, -2.15164766e-01, 3.49508834e+00,
          -1.32254690e-01, 2.16596866e+00, -3.15537274e-01,
          2.06235719e+00, 9.54855457e-02, 7.73039997e-01, 5.69071710e-01,
          1.64210394e-01, 2.04471499e-03, -2.11165980e-01,
          -1.91537559e-01, 8.25498462e-01, -7.21006468e-02,
          -7.16286004e-02, 1.02914043e-01, 2.27970332e-01,
          1.54493010e+00, -7.90704191e-02, 5.07767260e-01,
          1.44124639e+00, -3.30239654e-01, -3.90817255e-01,
          -1.04606307e+00, 2.82736707e+00, 1.87700200e+00,
          -4.37529594e-01, 2.32389355e+00, 4.09449005e+00,
          3.09275651e+00, 2.30663061e+00, 9.12075937e-01, 1.18132520e+00,
          7.20177174e-01, 6.80095100e+00, 2.01316285e+00, 1.48089921e+00,
          1.32882810e+00, 2.66836286e+00, 4.70898658e-01, 2.52211690e-01,
          1.91102481e+00, 9.59416211e-01, 1.98927486e+00,
          -1.67883933e-01, 7.13179469e-01, -4.83539730e-01,
          3.14330757e-01, 1.38130641e+00, 1.61574161e+00, 5.56774795e-01,
          3.70550931e-01, 2.73629516e-01, 2.38838100e+00,
          -3.73594314e-01, 8.74981463e-01, 3.13629895e-01,
          3.54061270e+00, -3.74790400e-01, 1.05352688e+00,
          6.47280073e+00, 2.14044333e+00, 1.46972060e+00, 2.97335362e+00,
          5.50831223e+00, 6.34894788e-01, 2.13890409e+00,
          -4.06853944e-01, 2.88214588e+00, 2.02604532e+00,
          1.29226756e+00, 1.66746032e+00, 8.50296259e-01, 5.70943117e-01,
          2.25666493e-01, 4.59109306e-01, 1.73311937e+00, 6.90264642e-01,
          1.64553630e+00, 5.64601541e-01, 4.53295499e-01, 2.13147497e+00,
          1.62049663e+00, 4.51547194e+00, 1.76804519e+00, 1.44449687e+00,
          1.45874932e-01, 2.84835845e-01, -5.62676251e-01,
          6.41193449e-01, 5.66235840e-01, 1.56538486e+00, 9.25932407e-01,
          2.89839029e+00, 4.95853722e-01, -5.29581428e-01,
          1.42829883e+00, 2.32892561e+00, 6.46135032e-01, 3.26473027e-01,
          1.79269338e+00, -5.19848406e-01, 4.63717520e-01,
          3.00412011e+00, -5.47471821e-01, 9.18505430e-01,
          8.24965537e-03, 1.72275329e+00, 4.76455182e-01, 1.24417377e+00,
          -5.70200741e-01, 1.59786737e+00, 9.27300870e-01,
          2.17502761e+00, 6.36503637e-01, 3.31190372e+00,
          -3.89097214e-01, 1.44604063e+00, 1.58031479e-01 ]
      - [ 1.26572394e+00, 1.92747688e+00, 5.97011137e+00, 8.15216064e+00,
          1.96900010e+00, 7.09887838e+00, 5.94976091e+00, 1.08481872e+00,
          4.02229261e+00, 4.70338631e+00, 5.29558802e+00, 1.07817364e+00,
          4.54640120e-01, 2.92814755e+00, -2.58266628e-02,
          1.90831316e+00, 2.72814488e+00, 9.06906649e-02, 5.32089472e-01,
          5.73886931e-01, -4.31510322e-02, -3.44642997e-01,
          -2.67234564e-01, 3.32843542e+00, 4.61164045e+00,
          8.22023153e-02, 4.39643115e-01, 5.16504884e-01, 9.96358156e-01,
          6.97794616e-01, 3.95964050e+00, -5.87705858e-02,
          1.44701076e+00, 3.82150188e-02, 3.44915915e+00, 3.33457041e+00,
          5.29744101e+00, 6.55049324e-01, 3.16441083e+00, 1.35373846e-01,
          2.17710710e+00, 9.13478434e-01, 9.39609241e+00, 7.35551214e+00,
          9.58476257e+00, 8.85242045e-01, 7.95300055e+00, 7.20283926e-01,
          -1.18060780e+00, -8.35043713e-02, -3.43749113e-02,
          -3.12111259e-01, 3.23032117e+00, 2.74332500e+00,
          -2.99208611e-01, 5.19864559e+00, 6.19529411e-02,
          1.55737615e+00, 4.20666695e+00, -5.20311147e-02,
          6.73893869e-01, 7.80308664e-01, 1.29846179e+00,
          -5.72075069e-01, -1.53477117e-01, 3.36235285e-01,
          1.60184610e+00, 2.89946961e+00, 3.34480596e+00,
          -5.43532372e-01, 2.09109902e+00, -1.92856118e-01,
          4.97040319e+00, -3.52489129e-02, 3.47088873e-01,
          -2.86832750e-01, 4.10441548e-01, -2.49755338e-01,
          2.37677917e-01, -6.28912523e-02, 2.05988318e-01,
          -4.91920620e-01, -5.54688811e-01, -3.06768864e-01,
          6.82504654e-01, 1.22733444e-01, -3.47508192e-01,
          4.71762151e-01, 1.92222387e-01, 1.55935633e+00, 2.01155424e+00,
          -4.09040898e-01, 2.06972182e-01, 8.61590862e-01,
          2.53886175e+00, 2.63180494e-01, 6.01936162e-01,
          -4.68449295e-01, 4.21412277e+00, 3.86357808e+00,
          1.98946881e+00, 8.15350819e+00, 4.00273418e+00,
          -6.35635108e-02, 4.34038401e+00, 5.35465479e-01,
          -6.14519000e-01, 3.81593525e-01, -2.31280848e-02,
          4.76689667e-01, 1.44528759e+00, 3.07327366e+00, 2.84954333e+00,
          5.36079943e-01, -6.28482521e-01, 1.60963293e-02,
          3.96497607e-01, 8.61615762e-02, 4.84497190e-01, 5.69539976e+00,
          2.04574251e+00, 1.57864141e+00, -5.26613742e-02,
          8.02435279e-01, 3.55300784e-01, 1.01033974e+00, 1.73242664e+00,
          2.46912050e+00, -2.86086679e-01, 4.45457220e+00,
          6.12856197e+00, 5.26979828e+00, 7.32026339e-01,
          -1.68404669e-01, 9.80918646e-01, -5.08663893e-01,
          4.40018892e+00, 3.80811143e+00, 1.75673473e+00, 3.62530923e+00,
          1.00984120e+00, 3.60146594e+00, 1.12084103e+01, 1.73914313e+00,
          1.20061481e+00, 1.82842493e-01, 2.70660853e+00, 1.59753513e+00,
          1.24536180e+00, 1.30478787e+00, 7.81662405e-01, 1.24018443e+00,
          5.31401992e-01, 2.61798096e+00, 4.37057114e+00, 3.14610577e+00,
          -5.43445110e-01, 1.66698539e+00, 3.17822605e-01,
          1.73118547e-01, 1.08008730e+00, -2.47562394e-01,
          -1.33673012e-01, -1.10590272e-03, 1.27352130e+00,
          1.57726753e+00, 6.48113251e-01, 1.90421665e+00, 2.99976087e+00,
          2.35727519e-01, 1.37993741e+00, 5.15927792e-01, 3.53626400e-01,
          6.23389065e-01, 9.01088595e-01, -6.67653918e-01,
          1.58032179e+00, -3.55465740e-01, 1.26636052e+00,
          1.33309615e+00, 1.80254173e+00, 3.69059235e-01, 6.73017621e-01,
          -2.12900922e-01, 1.57982004e+00, 3.57868791e-01,
          3.64847040e+00, 2.64113092e+00, 5.36349106e+00, 5.72017908e-01,
          8.50992203e+00, 2.79316235e+00 ]
      - [ 2.19123459e+00, -1.13618918e-01, 1.52062606e-02,
          1.55922258e+00, 5.42129099e-01, -5.11536181e-01,
          -5.32229602e-01, 1.01794493e+00, 8.24586689e-01,
          7.30622053e-01, 2.39373302e+00, 5.09465396e-01, 1.31025887e+00,
          -2.99950361e-01, 1.72509789e+00, 3.18550110e-01,
          4.18627888e-01, 5.85403025e-01, -5.14469147e-01,
          -2.55852073e-01, 2.88026601e-01, -5.06822839e-02,
          4.31504756e-01, -7.35294372e-02, -3.34253192e-01,
          5.23042142e-01, -2.60769218e-01, -3.52553010e-01,
          9.09999758e-02, -1.97481334e-01, -4.69905525e-01,
          1.88237146e-01, 1.22961152e+00, -3.87939781e-01,
          7.59325862e-01, 1.19985437e+00, 1.03006828e+00, 1.54721403e+00,
          9.61229384e-01, -4.99343961e-01, 1.34430975e-01,
          5.29916644e-01, 7.33460009e-01, 1.25062120e+00, 2.99425578e+00,
          7.33362198e-01, 6.66699409e-01, 1.05952775e+00,
          -1.50159323e+00, 3.43678147e-01, 1.97417036e-01,
          -2.29898944e-01, 1.91176844e+00, -4.81165797e-01,
          -9.25959796e-02, -3.48435730e-01, 8.47456336e-01,
          -3.61254841e-01, -3.05735528e-01, 1.66617787e+00,
          -4.10700113e-01, 1.33930647e+00, 2.69708842e-01,
          -6.05333447e-01, 2.57343602e+00, -1.73640382e-02,
          1.01817811e+00, -2.29988649e-01, 7.70030141e-01,
          6.35629296e-01, 1.84185410e+00, -1.94911554e-01,
          1.56485426e+00, 7.07814503e+00, 8.59934270e-01,
          -2.97849059e-01, -1.42063931e-01, -6.69568498e-03,
          2.84100264e-01, -6.93661049e-02, 1.28671467e+00,
          -1.01768382e-01, 1.19153595e+00, 6.33421242e-01,
          3.89063478e-01, 7.07370639e-01, 1.19938843e-01, 2.36944580e+00,
          -5.02728164e-01, -2.26366699e-01, -3.26938927e-02,
          -4.21511590e-01, -4.35469240e-01, 5.56021780e-02,
          1.09942675e+00, 6.16744794e-02, -4.00597304e-01,
          1.39042008e+00, 5.75879991e-01, 3.35983133e+00, 2.18343568e+00,
          1.09957361e+00, 5.08031940e+00, 2.48766392e-02, 4.78703864e-02,
          3.91988397e+00, -2.12201595e-01, 5.14454079e+00,
          2.10423994e+00, 2.03305769e+00, 2.55997658e+00, 4.13115412e-01,
          -4.00455981e-01, 6.96089268e-01, 6.04762077e-01,
          1.70236100e-02, 4.28677082e-01, 7.42523611e-01, 1.43529844e+00,
          1.45403278e+00, 1.80314139e-01, 3.65601808e-01, 1.28141153e+00,
          2.05256552e-01, 1.11136901e+00, 1.66973722e+00, 1.20316768e+00,
          1.07195735e+00, -1.40869424e-01, 3.46942949e+00,
          -6.53908849e-01, -4.48925346e-01, 1.48156857e+00,
          1.02082384e+00, -4.83101308e-02, -3.12051535e-01,
          4.85429573e+00, -5.05235791e-01, 2.09354019e+00,
          2.61359906e+00, 4.26943254e+00, 1.45842528e+00, 1.11943328e+00,
          6.78270698e-01, 2.53115892e+00, 3.03325772e-01, 3.67738694e-01,
          2.79674911e+00, -2.21200719e-01, -2.69070625e-01,
          4.38575506e-01, 1.12962306e+00, 8.10114518e-02, 6.92729592e-01,
          3.20545220e+00, 3.31225777e+00, 1.97434890e+00, 4.03873235e-01,
          3.70276690e+00, 5.07915795e-01, -2.05894113e-01,
          9.66901720e-01, 2.25570291e-01, -5.17637059e-02,
          -6.04100339e-02, -2.59137630e-01, -1.76476792e-01,
          6.02309346e-01, 3.62948358e-01, 1.48394573e+00,
          -4.17478144e-01, -2.04879865e-01, 2.07388926e+00,
          5.47823548e-01, 5.43248355e-01, -5.84304392e-01,
          2.82638341e-01, 4.86448547e-03, -2.66729742e-02,
          4.18597519e-01, 2.80653462e-02, -9.87837166e-02,
          -3.62235487e-01, -6.05656300e-03, -9.20233652e-02,
          3.19313794e-01, 8.98077905e-01, -4.86110300e-01,
          2.46124220e+00, -1.77663684e-01, 4.95484382e-01,
          -2.75873214e-01 ]
      - [ 2.05994034e+00, -3.25410068e-01, 1.13067534e-02,
          -3.59256834e-01, -8.01711380e-02, -5.26652336e-01,
          2.82845330e+00, 1.89728469e-01, -5.80666184e-01,
          -2.05369338e-01, 4.36172843e-01, -5.40885210e-01,
          -2.84175009e-01, 5.00020325e-01, 5.03115892e-01,
          5.67004681e-01, 9.02150795e-02, -2.70468026e-01,
          -5.70542276e-01, -3.93500298e-01, 1.03876218e-01,
          -2.52191544e-01, -2.60326177e-01, 6.26452827e+00,
          4.37638474e+00, 1.14684653e+00, 1.79952013e+00, 9.10536528e-01,
          1.05743730e+00, 1.30727065e+00, 2.39650559e+00, 5.35937011e-01,
          1.73459566e+00, -3.51735838e-02, 3.84502435e+00,
          -2.03385860e-01, 3.11084676e+00, 3.39781475e+00,
          7.47428477e-01, 9.37804699e-01, 6.39085293e+00, 1.68438745e+00,
          2.09339881e+00, 2.37527922e-01, 4.59424973e+00, 1.51749778e+00,
          3.46909213e+00, 9.50474072e+00, -1.33047962e+00,
          3.18555295e-01, 1.46241426e+00, 6.79475904e-01, 5.75146735e-01,
          2.93746185e+00, 2.24386001e+00, -2.58070350e-01,
          1.80073786e+00, -1.83640167e-01, 1.07909656e+00,
          6.98816001e-01, 6.75867870e-02, 5.45495152e-01, 4.98251140e-01,
          -1.66377664e-01, 2.26136136e+00, -3.45291883e-01,
          2.20728374e+00, 4.43172276e-01, 2.85354400e+00, 1.66113049e-01,
          3.80035019e+00, 2.39959455e+00, 5.15033817e+00, 4.15391862e-01,
          3.03430438e-01, -3.41451377e-01, -1.73022777e-01,
          -4.52289879e-01, 2.37637067e+00, 6.06928349e-01,
          5.61464489e-01, -3.92766297e-01, -3.51792306e-01,
          3.55337977e-01, -2.74401426e-01, 9.31673795e-02,
          2.11444721e-01, 7.54132926e-01, 9.67997611e-02,
          -4.66595650e-01, 8.63781631e-01, 7.75062501e-01,
          5.39285600e-01, 5.94734371e-01, 9.57041621e-01, 1.81758296e+00,
          -3.48965973e-01, 4.90966082e+00, -4.01437521e-01,
          -4.02890801e-01, 4.82736301e+00, 5.37745357e-01,
          1.58302132e-02, 1.14229727e+00, 3.83199072e+00, 1.42402554e+00,
          -3.01340312e-01, 1.46770000e+00, -5.74121654e-01,
          1.20416188e+00, -1.92854300e-01, -5.04417837e-01,
          3.81763250e-01, -5.00066102e-01, 1.74489331e+00,
          6.98327780e-01, 9.52465653e-01, 5.82413018e-01, 6.90534532e-01,
          5.99782020e-02, 1.90864551e+00, 6.48005724e-01,
          -2.44854406e-01, 1.36699510e+00, 3.77751887e-01,
          -3.61734748e-01, 1.88553464e+00, -2.52287775e-01,
          1.18586683e+00, -7.35219643e-02, 1.48666012e+00,
          1.12154531e+00, -1.59574654e-02, 9.52730715e-01,
          5.76017320e-01, 1.70901978e+00, 2.22239757e+00, 5.08489609e+00,
          9.50646520e-01, -2.70181954e-01, 1.46609747e+00,
          3.64412189e+00, 8.77575493e+00, 4.83437300e+00, 1.11400092e+00,
          1.05132318e+00, 4.51025158e-01, 9.74363267e-01, 9.65463221e-01,
          3.30129266e-01, 4.52500343e+00, -4.15106446e-01,
          -3.86137441e-02, 4.82933298e-02, -2.76406139e-01,
          -3.30506146e-01, 1.92193672e-01, 1.15495458e-01,
          7.62018859e-01, 4.16852283e+00, 3.34477901e-01, 2.27015764e-01,
          2.59046793e-01, 2.18453091e-02, 6.31130874e-01,
          -7.50186220e-02, -3.79808098e-01, 1.11166754e+01,
          7.59017944e+00, 2.60253215e+00, 1.91627181e+00, 2.40331125e+00,
          2.90902853e+00, -6.19510949e-01, 1.15556967e+00,
          -2.11855426e-01, 5.52067995e-01, -1.10761911e-01,
          2.01968622e+00, -5.60068190e-01, 1.35223377e+00,
          5.08299470e-01, 7.30239809e-01, -3.87695521e-01,
          2.57102489e+00, 5.15064836e-01, 7.38498569e-02,
          -1.62241012e-01, 2.75847554e+00, 1.31189060e+00,
          3.15129948e+00, 9.82312775e+00 ]
      - [ 7.92349994e-01, 9.22643244e-02, -4.01984609e-04,
          1.44281769e+00, 1.14992297e+00, 8.05696666e-01, 3.10794115e+00,
          2.83729225e-01, 1.45267034e+00, 1.93026221e+00, 2.17665720e+00,
          2.95896244e+00, 4.21952128e-01, 2.74543238e+00, 2.41936445e+00,
          1.89830256e+00, -8.12277570e-02, 2.44937921e+00,
          -4.68828864e-02, 1.90259647e+00, 1.25454235e+00,
          3.43607950e+00, 6.45230830e-01, 1.11722260e+01, 6.79280710e+00,
          1.22956018e+01, 8.78020942e-01, 3.30789924e+00, 5.21865487e-01,
          3.16735244e+00, -4.28176045e-01, 7.10925055e+00,
          1.94076765e+00, 1.55951893e+00, -3.29104394e-01,
          1.51384139e+00, 1.16354871e+00, 3.11121631e+00,
          -5.08043647e-01, -3.99153620e-01, -4.60580409e-01,
          -1.43738866e-01, -7.28022605e-02, 1.30691254e+00,
          -2.35415742e-01, 6.99848294e-01, 1.53478646e+00,
          9.75472987e-01, 1.61057246e+00, 2.07841158e+00, 5.96840918e-01,
          -3.34938735e-01, 9.50598642e-02, 4.38470453e-01,
          1.35868561e+00, 6.32533193e-01, -2.30767101e-01,
          -1.22786269e-01, 1.41042125e+00, 6.15295470e-02,
          1.32873547e+00, 1.23625398e+00, -7.08020553e-02,
          2.64391184e+00, 1.69469011e+00, 5.86183727e-01, 9.20893550e-01,
          9.70568299e-01, 4.42728251e-01, 1.71207428e+00, 8.86200011e-01,
          2.19020128e+00, 3.11336368e-01, 9.17915285e-01,
          -6.25302866e-02, 6.40045583e-01, -3.93442102e-02,
          -4.51451004e-01, 1.33655459e-01, -5.39575875e-01,
          2.12569094e+00, 5.67464590e-01, 2.06345797e-01,
          -5.00971615e-01, 4.70342517e-01, 4.70261663e-01,
          6.20607972e-01, 1.36759388e+00, 6.71497643e-01, 2.49355674e-01,
          1.51500523e+00, 2.30666852e+00, 8.09851587e-01, 2.25786233e+00,
          8.11949921e+00, 3.22731018e+00, -1.10566044e+00,
          -4.91470307e-01, -1.90834925e-01, -2.87315667e-01,
          8.75510834e-03, 1.17424786e+00, 1.47492564e+00,
          -2.27201328e-01, -3.35761845e-01, -5.77173591e-01,
          6.35697842e-01, 6.18544817e-01, 3.32154155e-01, 2.96942949e-01,
          1.81880668e-01, 3.13493967e-01, -6.48275912e-01,
          -4.31177914e-01, -6.25641644e-01, 8.63236606e-01,
          -1.79856807e-01, 8.17517713e-02, 1.30777180e-01,
          1.76634514e+00, 8.22492182e-01, 4.81943703e+00, 1.61635697e+00,
          3.19059819e-01, 5.13328254e-01, 1.73295176e+00,
          -8.60139951e-02, 1.77240753e+00, 1.56110609e+00,
          -4.30950373e-01, 1.42677033e+00, -4.22514021e-01,
          5.00816882e-01, 9.81825471e-01, -5.99309385e-01,
          -3.61709923e-01, 2.19046786e-01, 1.34373224e+00,
          8.14075530e-01, 5.17262280e-01, 4.84218061e-01, 3.12189400e-01,
          -3.41037303e-01, 1.86132717e+00, 3.01896191e+00,
          4.52639866e+00, 1.79054582e+00, 1.18463707e+00, 1.00159146e-01,
          -2.05030024e-01, 3.74733543e+00, 4.87292320e-01,
          1.41845405e+00, 4.08947992e+00, 2.61843228e+00, 9.40309048e-01,
          1.43124461e+00, -2.86628813e-01, 4.99271065e-01,
          1.60152352e+00, 1.20645487e+00, 3.87845069e-01, 9.00225222e-01,
          -4.06402469e-01, 1.20226133e+00, 1.48875847e-01,
          1.96065009e+00, 1.40929234e+00, 6.87076998e+00, 6.03014803e+00,
          4.27329481e-01, 1.04904783e+00, 1.63888037e-01, 1.48979187e-01,
          -5.08463502e-01, 1.09836876e+00, 1.99690306e+00,
          6.68098390e-01, 1.06771752e-01, -3.58963639e-01,
          -4.19049084e-01, 6.34556055e-01, 2.66772121e-01,
          3.70558977e-01, -1.10415712e-01, 7.29747042e-02,
          8.74152005e-01, 1.48565412e+00, 1.73687235e-01, 8.21587324e-01,
          3.23757291e+00, 5.84848225e-01 ]
      - [ 1.70639837e+00, -2.94368267e-01, -8.94812576e-04,
          1.69275081e+00, 4.29419905e-01, -5.91958940e-01,
          4.30044085e-01, 2.82079959e+00, 8.86871219e-02,
          -4.10908043e-01, 8.94629210e-03, 3.93621421e+00,
          2.37213090e-01, 8.25859681e-02, 5.25163114e-01, 2.21380949e+00,
          2.96007305e-01, 1.03768490e-01, 2.61306286e-01, 4.56404746e-01,
          -1.67224437e-01, 4.22096759e-01, 4.23534036e-01,
          2.55177259e-01, 4.06716436e-01, 4.43685740e-01, 1.51612985e+00,
          2.66577911e+00, 2.38669729e+00, 3.66916507e-01, 4.16878909e-01,
          1.10146403e+00, 1.83261144e+00, 5.56770563e-01,
          -1.50664508e-01, 2.21052027e+00, 5.70121743e-02,
          4.47792482e+00, 5.70731997e-01, -3.47002715e-01,
          -4.41614568e-01, 1.42556918e+00, 1.49833310e+00,
          2.20658537e-02, 1.83884633e+00, 2.71201968e+00, 9.63068567e-03,
          1.07901192e+00, -1.22578323e+00, -1.49256200e-01,
          6.22021556e-01, -4.84251291e-01, 1.02454245e+00,
          -1.28392011e-01, 1.25996733e+00, -2.92290568e-01,
          6.41925693e-01, -3.48883212e-01, 4.59953219e-01,
          -1.39673268e-02, 2.08044982e+00, -4.21637475e-01,
          1.01790440e+00, -5.78391813e-02, 7.80771613e-01,
          1.10534513e+00, 1.44947207e+00, 4.02780026e-01, 1.15762472e+00,
          -3.93774182e-01, 2.28985429e+00, 1.58258956e-02,
          7.37499416e-01, -9.32345316e-02, 3.67742062e+00,
          2.48303008e+00, 2.76843238e+00, 3.72807145e-01, 2.33984184e+00,
          -3.83136481e-01, 1.47645295e+00, -4.84104395e-01,
          8.40181947e-01, -3.35171193e-01, 2.14942932e-01,
          8.76673907e-02, 7.11602509e-01, 1.69254854e-01,
          -1.55279055e-01, 5.42696454e-02, -1.64262682e-01,
          -2.60432567e-02, 1.23739994e+00, -3.60984132e-02,
          7.41583884e-01, -3.66391301e-01, -8.96553397e-01,
          3.61390799e-01, 5.22373438e-01, 9.54289854e-01, 1.11338288e-01,
          -4.67053354e-01, 1.22062659e+00, 1.02702296e+00,
          1.08454311e+00, -2.28618592e-01, 3.30859685e+00,
          1.23021424e+00, 5.29191077e-01, 2.60443759e+00,
          -5.46168149e-01, 2.70867872e+00, -3.31611782e-01,
          1.90461576e+00, 1.28215122e+00, 1.41981494e+00, 1.04407549e+00,
          -3.95311788e-02, 4.10273343e-01, 6.53330624e-01,
          3.07204962e-01, -4.24832821e-01, 3.97746134e+00,
          1.39307594e+00, 2.84029913e+00, 1.48750186e+00, 1.45652950e-01,
          9.25173819e-01, 1.29226661e+00, 3.37950802e+00, 2.92120844e-01,
          2.22233248e+00, 5.34617841e-01, 7.20699131e-01,
          -5.71626008e-01, 3.56511801e-01, -5.06596901e-02,
          2.15379238e+00, 1.01189303e+00, 8.39339972e-01,
          -5.32677829e-01, -1.73043579e-01, 1.21740758e+00,
          5.30751884e-01, 1.17598033e+00, 7.72226572e-01, 2.55665064e-01,
          1.77553093e+00, 1.02358103e+00, -3.95271420e-01,
          -8.05239081e-02, 1.39489448e+00, 1.22427776e-01,
          -2.52584249e-01, 1.06617951e+00, 2.61785388e+00,
          1.03311265e+00, 1.47649276e+00, -2.91499674e-01,
          2.72527456e-01, 6.87405646e-01, 1.31097913e+00,
          -4.59237486e-01, 2.16627687e-01, -2.18105376e-01,
          8.68415952e-01, 1.01124167e+00, 3.82184386e-01, 6.86711371e-01,
          1.52182913e+00, 3.62555313e+00, 4.07861662e+00, 4.58601475e+00,
          1.65441751e-01, -1.67805925e-01, 7.26107433e-02,
          9.02860403e-01, -4.29265320e-01, -1.73769280e-01,
          5.25554359e-01, -2.75980949e-01, 1.26507294e+00,
          3.87119979e-01, -4.48604524e-01, -6.64551929e-02,
          4.74149287e-02, 5.49401760e-01, 1.59595925e-02, 2.25832194e-01,
          2.12437868e+00, -1.98662393e-02, 8.23942661e-01 ]
      - [ 2.27380204e+00, -9.31298956e-02, 5.96321106e-01,
          -2.22765684e-01, -2.41681919e-01, 2.77783513e+00,
          8.48419070e-01, 9.28234696e-01, 7.67881989e-01, 6.40695989e-01,
          -6.65265620e-01, 2.09978676e+00, 7.04052746e-01,
          7.19224155e-01, 1.17292547e+00, 1.98239670e-03, 1.47225237e+00,
          -4.58409756e-01, 5.06215632e-01, -6.08388148e-02,
          -4.23032016e-01, 1.39963821e-01, -2.43914455e-01,
          -4.79272962e-01, 5.67961857e-02, -1.22138225e-01,
          1.05038106e+00, -2.78671056e-01, -2.91129798e-02,
          1.98998153e+00, 1.53465354e+00, 1.61482227e+00, 1.65024269e+00,
          3.31541359e-01, 1.03607988e+00, -2.62274928e-02,
          1.08156025e+00, 9.76736069e-01, -4.82397139e-01,
          -2.63197988e-01, 2.62465906e+00, 2.90711999e+00,
          3.18968463e+00, 1.73077834e+00, 7.20507324e-01, 3.81989670e+00,
          6.99212134e-01, 1.65324584e-01, -1.35142636e+00,
          1.97440296e-01, 3.19313854e-01, 1.80186108e-01, 7.02902257e-01,
          -3.57402354e-01, -4.56330180e-01, -2.27484092e-01,
          -2.37574652e-01, 2.58162689e+00, 1.18526590e+00,
          2.43478373e-01, 1.92325914e+00, -5.16700387e-01,
          4.00988460e-01, 1.31732273e+00, 2.40887308e+00,
          -4.88042295e-01, 8.05494189e-01, -3.09915930e-01,
          1.47535920e+00, -1.86870500e-01, 4.05420929e-01,
          5.47435582e-01, 1.50320613e+00, 7.66518164e+00, 7.27213681e-01,
          3.32173258e-01, -3.46042871e-01, 5.43537021e-01,
          1.89548123e+00, 4.68441606e-01, 5.52433729e-02,
          -2.19305232e-01, 8.38714838e-01, 3.63901824e-01,
          -3.95369381e-01, -6.89499974e-02, -4.25053805e-01,
          -3.00616950e-01, -5.54679275e-01, 9.74495947e-01,
          3.14630330e-01, 7.07388282e-01, 2.69413084e-01, 8.35474193e-01,
          -2.44806841e-01, 2.57480979e-01, 4.57147062e-01,
          -4.05523509e-01, 1.02738190e+00, 9.82695460e-01,
          1.06000766e-01, 5.93574047e+00, 2.04432797e+00, 2.57092452e+00,
          -5.51025212e-01, 2.44084582e-01, 1.86180556e+00,
          8.39380175e-03, 4.97590923e+00, -2.99231529e-01,
          2.01968980e+00, 5.50672579e+00, -5.84318459e-01,
          1.61509871e+00, -8.48704576e-02, -5.68316281e-01,
          2.36387715e-01, -1.47886723e-01, 9.58421469e-01,
          8.85938630e-02, 3.42600226e+00, 1.34381568e+00, 4.77369368e-01,
          2.86019325e-01, 1.76911086e-01, -2.19260797e-01,
          1.59791541e+00, 1.20808423e+00, -3.20705801e-01,
          3.05198050e+00, 9.54147756e-01, 1.17396784e+00, 4.08330154e+00,
          -5.62037468e-01, 5.45652103e+00, 2.13622594e+00,
          9.42093730e-01, 1.36352301e-01, 4.74398941e-01, 3.26480818e+00,
          -9.24381465e-02, 2.33352423e+00, 6.48400664e-01,
          6.87598586e-01, 2.86711788e+00, 8.79488826e-01, 2.97402680e-01,
          -3.36579978e-01, -7.01514110e-02, 2.02323988e-01,
          -2.52710611e-01, 3.04540777e+00, -2.01489717e-01,
          -6.36771798e-01, 1.06179500e+00, 1.43854165e+00,
          8.00974905e-01, -6.08870566e-01, 2.67866540e+00,
          1.98927391e+00, 1.44481385e+00, 1.81611583e-01, 1.52871406e+00,
          5.49854279e-01, -1.51630849e-01, 4.01401557e-02,
          3.39475155e-01, -4.95712399e-01, 1.90817952e+00,
          1.86123526e+00, 5.61736524e-01, 3.24241184e-02, 6.62529394e-02,
          2.53001809e+00, 7.19371676e-01, -3.53500783e-01,
          1.63332987e+00, 1.66002512e+00, -4.33277249e-01,
          -2.08310202e-01, 4.81324762e-01, -5.81425965e-01,
          -5.40029049e-01, -4.62283641e-01, 8.95493329e-01,
          -4.09115255e-01, 7.17896879e-01, -3.63609165e-01,
          7.84512997e-01, 1.07225776e+00, 1.00731838e+00,
          -1.67825580e-01 ]
      - [ 1.72163165e+00, -4.49492067e-01, 1.08776465e-01,
          2.14971989e-01, -1.05213083e-01, 5.12374192e-02,
          2.91860342e-01, -1.38631567e-01, -5.17357945e-01,
          6.83104753e-01, -1.31113991e-01, 4.27516460e-01,
          -1.33303441e-02, 3.63471329e-01, 3.18100482e-01,
          -3.54443341e-02, -4.91315201e-02, -3.43948603e-01,
          -3.73159908e-02, -4.12565857e-01, -1.34761468e-01,
          -1.68740511e-01, -7.62612447e-02, 9.47605595e-02,
          1.75377816e-01, 2.18630254e-01, -1.08520284e-01,
          -4.26632196e-01, -9.40388292e-02, 9.61065739e-02,
          -3.31926346e-01, -4.23436344e-01, 4.63418029e-02,
          4.26251255e-03, -4.20311600e-01, -2.14531079e-01,
          1.67828768e-01, -5.08897066e-01, 2.27862298e-01,
          -1.64126158e-01, -1.71047032e-01, 6.00944042e-01,
          -4.16963160e-01, 3.40947658e-01, 5.86666644e-01,
          6.77538142e-02, -2.05130558e-02, 7.36901164e-02,
          -1.49794233e+00, 2.48431587e+00, 5.76966763e-01,
          1.97558367e+00, 6.48814976e-01, 1.36330649e-01, 3.59195083e-01,
          2.54794117e-03, 1.29507041e+00, -1.88680142e-01,
          -3.10289264e-01, 1.42610520e-01, 6.79641187e-01,
          -5.97506523e-01, 2.41843581e-01, 1.27933097e+00,
          5.01412898e-02, 4.82782155e-01, 1.91622511e-01, 5.96118987e-01,
          1.24189354e-01, 9.52102184e-01, 2.58828193e-01, 3.06424916e-01,
          1.93630174e-01, 4.97439772e-01, 1.61281037e+00, 1.78293061e+00,
          3.94079059e-01, 9.83014882e-01, -3.58234107e-01,
          5.59816539e-01, -4.89013404e-01, -5.25867403e-01,
          -5.87049186e-01, -6.76476657e-02, -4.32491511e-01,
          -4.64893222e-01, -2.32568473e-01, -4.84462887e-01,
          -4.55622107e-01, 5.04023731e-02, -9.02811810e-02,
          -2.41677195e-01, -2.67794102e-01, -3.62667829e-01,
          1.37026921e-01, -1.21681452e-01, -6.13374496e-03,
          -7.13553838e-03, 9.68466520e-01, 1.80021545e-03,
          -1.44767603e-02, 3.32550734e-01, -9.09336954e-02,
          -3.40528131e-01, 3.69082272e-01, -5.10695159e-01,
          -5.23063064e-01, -5.27455568e-01, -3.74478400e-01,
          -6.95230186e-01, -8.18371102e-02, -2.63318736e-02,
          -4.42854017e-01, -6.90307245e-02, -3.81452799e-01,
          -2.55869508e-01, -4.33638632e-01, -8.23341012e-02,
          -2.27543145e-01, 9.01664674e-01, -3.26468885e-01,
          5.13959169e-01, 1.08277917e+00, 1.42395651e+00, 4.23649013e-01,
          -2.22736865e-01, 1.58214784e+00, -2.22059801e-01,
          1.28829706e+00, -2.74891496e-01, 5.59039772e-01,
          -6.45157456e-01, 1.37162423e+00, -5.46002984e-01,
          8.41833532e-01, 5.04696369e-01, 1.27666283e+00, 8.40863943e-01,
          3.12628627e-01, 1.80215746e-01, 2.61973572e+00,
          -2.19440833e-01, 2.26413059e+00, -1.68036655e-01,
          7.59820580e-01, 6.75567746e-01, 8.29936266e-01, 1.67685747e+00,
          -8.67163613e-02, 1.74783444e+00, 7.65482634e-02,
          -2.56100982e-01, -5.96952178e-02, 1.89594781e+00,
          -5.40645599e-01, 2.11825326e-01, 1.31924307e+00,
          1.69408393e+00, 7.84559429e-01, -6.21756077e-01,
          1.26403242e-01, 4.86807883e-01, -4.75390941e-01,
          -4.66026723e-01, -5.44494748e-01, 3.01225912e-02,
          -1.21442847e-01, 1.04962325e+00, -5.35353124e-01,
          -3.39633793e-01, 1.86461890e+00, 2.80969799e-01,
          1.05251718e+00, 3.86171609e-01, -4.50939894e-01,
          -2.51956712e-02, -1.10296741e-01, -7.35970512e-02,
          -3.34363669e-01, -3.15994620e-01, -1.97476089e-01,
          -4.17823434e-01, 1.71216438e-03, -2.48275459e-01,
          -4.88640398e-01, -3.57532173e-01, -5.39373636e-01,
          4.79414195e-01, -1.59946363e-03, 6.30297959e-02,
          1.86517820e-01, -2.09889957e-03 ]
      - [ 1.90219855e+00, 3.81283116e+00, 2.41985989e+00, 5.04170656e+00,
          2.71688581e+00, 2.52791786e+00, 1.23588479e+00, 1.45051062e+00,
          8.19568560e-02, 9.73323807e-02, 1.71038651e+00,
          -2.35444918e-01, 8.22806299e-01, 1.25891781e+00,
          8.21399033e-01, 4.09633756e-01, 3.24151456e-01,
          -1.14821739e-01, -5.32693207e-01, -7.35885128e-02,
          -4.55520600e-01, 2.82296240e-02, -3.05480789e-02,
          3.00294578e-01, 7.28600472e-02, -3.03827703e-01,
          6.60498202e-01, -2.18587279e-01, 4.43783140e+00,
          2.48839879e+00, 2.47168511e-01, 3.14658499e+00, 1.77654490e-01,
          6.87428489e-02, 5.06502271e-01, 3.19806516e-01, 4.02395755e-01,
          -2.53998667e-01, 2.72222376e+00, -2.60857016e-01,
          5.66359103e-01, -1.94850370e-01, 5.81166446e-01,
          7.64966190e-01, -7.23319799e-02, 7.33485520e-01,
          -4.44086082e-02, 4.98760790e-01, -1.35622048e+00,
          6.46530867e-01, 2.02855754e+00, 1.59369802e+00, 9.26217556e-01,
          -2.35398680e-01, 2.51755536e-01, -4.34313342e-03,
          -3.62880707e-01, -4.34826970e-01, 1.50562868e-01,
          1.46171486e+00, -4.70813960e-01, -6.41546607e-01,
          4.84254025e-02, 3.86471212e-01, 7.24884212e-01, 3.74378026e-01,
          3.23867947e-01, -2.38581762e-01, -5.21220684e-01,
          -2.23326787e-01, -2.10234329e-01, 1.96526498e-02,
          4.01447207e-01, 5.69002450e-01, 6.49313033e-01, 3.33976436e+00,
          9.75001717e+00, 2.62355638e+00, 8.53138924e-01, 2.37811375e+00,
          5.80076337e-01, 3.80586416e-01, 2.85584152e-01, 4.97608006e-01,
          2.49065354e-01, -3.85724425e-01, 6.24257065e-02,
          -4.09629375e-01, -4.80436236e-01, -4.38801140e-01,
          -7.10783666e-03, 3.17595184e-01, 1.12218246e-01,
          3.61128986e-01, 4.93350923e-01, 2.55935460e-01, 7.69959331e-01,
          6.30552340e+00, 9.04126740e+00, 7.72008657e+00, 5.95817280e+00,
          5.85350227e+00, 2.48764205e+00, 2.42865309e-01,
          -6.26203418e-01, 1.28319180e+00, 3.26864743e+00,
          3.75774789e+00, 3.59235048e+00, 9.05565396e-02, 5.43000996e-02,
          -5.44962347e-01, -4.04287994e-01, 7.25755513e-01,
          -3.71930785e-02, 4.82148826e-01, -4.19688344e-01,
          1.97759092e-01, -5.35924803e-04, 8.14242721e-01,
          1.01196253e+00, -1.57004148e-01, -4.11869019e-01,
          6.62113953e+00, 2.19973922e+00, 5.64986372e+00,
          -6.18471265e-01, 2.03050160e+00, 5.72893798e-01,
          -5.39927125e-01, 9.95324492e-01, -4.82447654e-01,
          5.76325715e-01, 2.07220376e-01, 4.70657349e-01, 3.60281199e-01,
          1.82859093e-01, -8.24876130e-02, 6.72506273e-01,
          -4.95200455e-01, 9.22536731e-01, 2.68835187e+00,
          1.63048589e+00, -1.96697503e-01, 2.22772479e+00,
          5.40030003e+00, 5.78189373e+00, 6.39052296e+00, 2.18548036e+00,
          1.91420341e+00, 7.34979630e-01, 5.11670411e-01, 9.61666182e-02,
          2.37858921e-01, 3.70476294e+00, 8.06957901e-01, 9.23670948e-01,
          3.29839468e-01, 5.63503861e-01, -3.85817707e-01,
          -6.95530295e-01, 4.21814054e-01, -5.88945389e-01,
          -2.30009854e-01, 2.22984403e-01, -2.02898517e-01,
          -3.51330310e-01, 5.69018163e-02, 1.09430099e+00,
          2.92667031e-01, 1.38702930e-03, -3.74109857e-02,
          -3.67380887e-01, 1.09581858e-01, 9.88236248e-01,
          7.96874821e-01, -4.87919509e-01, -1.31727159e-01,
          -2.80283302e-01, -4.42942619e-01, -1.29462272e-01,
          -3.40612888e-01, 1.07743824e+00, -2.41395056e-01,
          3.19983244e-01, -3.20781559e-01, -1.38054982e-01,
          1.73161775e-02, -3.72455686e-01, 1.96160123e-01,
          1.63727745e-01, -3.73632796e-02 ]
      - [ 1.81481791e+00, -4.33045030e-01, -9.96581241e-02,
          6.91735446e-02, -4.16398615e-01, -1.32387474e-01,
          -5.45521140e-01, 2.40081161e-01, -4.46553975e-01,
          -1.08940691e-01, -5.31263016e-02, 1.29928859e-02,
          -1.98788479e-01, -5.48274100e-01, -2.40357578e-01,
          9.11881626e-02, -3.26435938e-02, -4.77477431e-01,
          -6.20337486e-01, -7.59109184e-02, -4.20795709e-01,
          -2.58152544e-01, 2.16391265e-01, -4.72638786e-01,
          1.11841477e-01, -2.58507371e-01, 3.33266199e-01,
          -3.21668029e-01, 2.26778126e+00, 9.50669721e-02,
          1.88885525e-01, 1.72101021e-01, -2.24195775e-02,
          3.83805752e-01, -4.05927300e-01, -1.62968233e-01,
          -5.63317120e-01, -5.39136291e-01, -5.50918460e-01,
          -4.16408211e-01, -7.01054558e-02, -1.15576766e-01,
          -2.44954839e-01, 8.87751654e-02, -5.18335029e-02,
          7.11411476e-01, -3.33550833e-02, 1.98149711e-01,
          -1.29762137e+00, 9.65647250e-02, -1.40342876e-01,
          -4.04144287e-01, -3.80211145e-01, -3.95041764e-01,
          6.19506001e-01, 6.49832249e-01, 2.61227906e-01, 2.06877530e-01,
          -3.31106067e-01, -6.28053248e-01, 6.99702084e-01,
          4.13300097e-01, 8.85299325e-01, 1.10672641e+00, 3.61795664e-01,
          -3.78168106e-01, 5.12017846e-01, -5.87321334e-02,
          9.37253892e-01, -3.01644243e-02, 1.02765393e+00,
          6.49582565e-01, 2.98457474e-01, 3.68145108e-01, 7.66020775e-01,
          2.12970138e+00, 5.15584087e+00, 9.04605448e-01, 1.00978398e+00,
          4.58073802e-03, 1.08265430e-01, 3.97874713e-01, 1.64361954e-01,
          -3.58831763e-01, 1.20098233e-01, -2.47813627e-01,
          -5.54318786e-01, -1.28352895e-01, -1.44402415e-01,
          -3.82367104e-01, -1.37803748e-01, -3.55500281e-01,
          2.81223834e-01, -2.46914685e-01, 2.65656382e-01,
          -4.80505943e-01, -2.92614013e-01, 9.94301021e-01,
          7.86854148e-01, 5.54170012e-01, 3.94199938e-01, 1.02051325e-01,
          2.57271230e-01, 2.15129122e-01, 3.64354849e-01, 1.10137165e+00,
          -4.76697320e-03, -4.96244490e-01, 6.25363052e-01,
          1.28570127e+00, -4.87532169e-01, -5.57006598e-01,
          -2.86938161e-01, 2.76571691e-01, -6.28261030e-01,
          -6.23797119e-01, -3.71998399e-01, -4.60204519e-02,
          -7.77230039e-02, -5.81703126e-01, -1.24589458e-01,
          6.39540851e-01, 3.34306598e-01, 1.94585085e+00, 1.95894587e+00,
          1.06416583e+00, 7.77865112e-01, 4.40164030e-01,
          -3.22657496e-01, 8.94694403e-02, -5.09806514e-01,
          -5.96830070e-01, -6.66925013e-01, 2.48110980e-01,
          -3.90991032e-01, -5.94739199e-01, 4.05863076e-01,
          2.25007877e-01, -3.78056437e-01, 2.16358423e-01,
          2.14230344e-01, -1.10655144e-01, -3.34943645e-02,
          -3.95518392e-02, 9.48582768e-01, 5.91981530e-01,
          3.00797939e-01, 5.09466052e-01, 3.51237565e-01,
          -4.08583254e-01, 8.59251857e-01, -1.38742566e-01,
          -3.10619652e-01, 1.86028826e+00, -3.22792441e-01,
          6.79612279e-01, 4.75331321e-02, 8.19618851e-02, 2.29210868e-01,
          -1.06462732e-01, 3.97325456e-01, -6.43832028e-01,
          -8.70770365e-02, -2.52144963e-01, -4.97933000e-01,
          -2.05812022e-01, -1.34544894e-01, -5.13931751e-01,
          1.10659051e+00, -4.15353566e-01, 9.09224510e-01,
          1.43274617e+00, 3.40658951e+00, 7.31700659e-01, 1.01649916e+00,
          1.63348671e-02, -2.11308956e-01, -4.33799773e-01,
          -2.70272821e-01, -3.85578871e-01, -5.51557064e-01,
          -4.40898836e-01, -3.53491157e-01, -5.53950012e-01,
          -5.47209084e-01, -3.64010751e-01, 1.42134681e-01,
          -2.67026760e-02, -2.20143110e-01, 1.76661074e-01,
          -7.76838735e-02, 1.02783337e-01 ]
      - [ 6.12428188e-01, 6.86582994e+00, 5.06691265e+00, 8.38716984e+00,
          1.06329584e+00, 7.92427063e+00, 4.70538712e+00,
          -5.56585133e-01, 2.76339841e+00, 5.23433113e+00,
          1.01018496e+01, 7.49381924e+00, 2.84020853e+00,
          -3.09934407e-01, 2.97451615e-01, 4.10513878e-02,
          -5.51096916e-01, -5.82730293e-01, -2.52526432e-01,
          -2.50312656e-01, -2.63973147e-01, 1.87353030e-01,
          1.76532543e+00, -2.73891628e-01, 1.38194966e+00,
          1.08927846e+00, -1.53148517e-01, 3.08589309e-01,
          2.59152114e-01, 2.99712777e+00, 2.42324877e+00, 2.83951849e-01,
          6.93755805e-01, 3.92399669e-01, 1.33524287e+00, 1.36662197e+00,
          1.22767603e+00, 5.97081327e+00, 6.74168682e+00, 1.86081719e+00,
          5.64301372e-01, 2.38986135e+00, 5.66733479e-01,
          -2.96891093e-01, 2.22597051e+00, 5.48366833e+00,
          1.92942822e+00, 4.41062355e+00, -9.63322937e-01,
          5.30273542e-02, 4.88958549e+00, 5.37038708e+00,
          -2.62360573e-01, 1.92689824e+00, -3.34266238e-02,
          5.47322035e-02, 2.62014538e-01, 7.05079675e-01, 4.39803076e+00,
          2.36630154e+00, 1.26568213e-01, 2.17740774e+00, 9.43914771e-01,
          -1.21816695e-01, 1.52795270e-01, 3.32679486e+00,
          1.86864245e+00, 5.54010987e-01, 4.21557315e-02, 5.44630814e+00,
          1.16256940e+00, 2.71232963e+00, 3.21584105e+00, 2.51686603e-01,
          -2.31767252e-01, -1.16166867e-01, 1.24202803e-01,
          1.04410470e+00, 2.13566828e+00, 1.39565814e+00,
          -3.95485699e-01, -1.94565892e-01, -4.13753271e-01,
          4.08537269e-01, -5.15271306e-01, -2.16451138e-02,
          5.61420798e-01, 1.06645870e+00, -7.96740279e-02,
          2.12866688e+00, 2.54034042e-01, 1.33464634e+00,
          -3.23459864e-01, 1.56904209e+00, 2.58917952e+00,
          2.91589022e+00, 5.86225450e-01, 3.48293376e+00, 9.92936432e-01,
          1.33928525e+00, 2.26287866e+00, 6.94005728e-01,
          -4.89643544e-01, 1.81820750e+00, 5.60260010e+00,
          2.92811251e+00, 7.24332762e+00, 6.45109129e+00,
          -5.34080207e-01, -6.17844880e-01, -3.72375280e-01,
          -4.32339102e-01, -3.08624089e-01, -3.09875399e-01,
          2.08913875e+00, 1.30812836e+00, 9.31951940e-01, 1.01097298e+00,
          1.90758991e+00, 3.65239888e-01, 4.95454359e+00, 2.58313990e+00,
          2.79209423e+00, 7.04165637e-01, -4.06469852e-02,
          -4.04965490e-01, 1.69389043e-02, 1.44095242e+00,
          6.57210064e+00, 4.28265047e+00, 5.18947601e-01,
          -4.13240343e-01, 1.45447278e+00, 3.39835453e+00,
          -7.04413429e-02, 1.27862763e+00, 2.06030560e+00,
          -3.77848566e-01, 4.48737478e+00, 7.19026661e+00,
          8.79848862e+00, 1.09253054e+01, 4.37252092e+00, 3.05840790e-01,
          7.16315031e-01, 2.93867087e+00, 1.51020086e+00, 3.43297052e+00,
          3.49906564e-01, 3.16206098e+00, 2.41724825e+00, 3.23793840e+00,
          2.58822894e+00, 1.92582893e+00, 1.39091825e+00, 2.77608275e-01,
          1.61205113e+00, 5.65426111e-01, 1.15520442e+00,
          -2.12136090e-01, 2.22915077e+00, 7.55398512e-01,
          5.15279174e-01, 6.06053054e-01, -2.96628982e-01,
          -8.56830776e-02, 2.94512510e+00, 1.22611809e+00,
          1.15525031e+00, 1.94983411e+00, 1.77355573e-01, 5.04053116e-01,
          1.41765428e+00, 1.68482304e+00, 5.91040194e-01, 7.46389925e-01,
          1.52111650e+00, 2.92235732e-01, 5.63642442e-01, 5.01819968e-01,
          -4.69330311e-01, 2.00915709e-01, 1.27647567e+00,
          7.15247154e-01, 1.92937240e-01, 1.68425250e+00, 1.36531305e+00,
          -1.60240769e-01, -8.94941911e-02, 6.06198931e+00,
          3.45471621e+00, 3.95340300e+00 ]
      - [ 1.21099317e+00, 1.97847211e+00, 6.87162220e-01, 2.99021214e-01,
          4.63386917e+00, 1.50734019e+00, 3.15745687e+00,
          -2.28114054e-01, 3.91554308e+00, 2.77691269e+00,
          1.87785304e+00, 1.29272744e-01, -4.50211942e-01,
          7.58946836e-02, 6.75655365e-01, -3.52437139e-01,
          5.51390469e-01, 1.55453071e-01, 1.11291718e+00,
          -5.10633290e-01, -1.69496059e-01, -1.85385272e-01,
          -1.05676405e-01, 1.44997609e+00, 7.05357492e-02,
          -1.95848897e-01, 2.95701206e-01, 1.43527126e+00,
          3.12306490e-02, 3.41758996e-01, 2.98073936e+00, 8.98125648e-01,
          2.48693824e+00, 8.68178248e-01, 1.78764701e+00,
          -3.05141628e-01, 1.94091392e+00, 1.23805285e+00,
          2.74981427e+00, 2.25057706e-01, 8.58996153e-01,
          -3.12520051e-03, 2.52417684e+00, -3.04779530e-01,
          3.54208183e+00, -3.43627520e-02, 1.40639043e+00,
          5.57573915e-01, -7.66173542e-01, 2.28501344e+00,
          3.16461778e+00, 6.07092333e+00, 4.71935844e+00, 2.33116603e+00,
          3.98203349e+00, 5.79414129e-01, 7.37244463e+00, 6.41308212e+00,
          5.27159333e-01, 5.69202852e+00, -2.97921132e-02,
          3.73241758e+00, 4.14682776e-01, 1.18506682e+00,
          -2.65841991e-01, -4.21653360e-01, -2.63007015e-01,
          2.02947068e+00, 7.92721093e-01, 1.88948974e-01, 9.16648626e-01,
          -3.55038881e-01, -2.19371170e-01, 5.17190278e-01,
          2.20769286e-01, 2.21995187e+00, -5.73797710e-02,
          3.29466462e-01, -4.98782128e-01, -2.58215159e-01,
          8.04900348e-01, -3.62761140e-01, 1.07083678e+00,
          8.68209004e-01, -5.53198792e-02, -4.90236506e-02,
          1.11175939e-01, 4.93330330e-01, 8.28257740e-01,
          -5.03018200e-01, 2.98254848e-01, 6.72671974e-01,
          1.64369035e+00, 4.93989420e+00, 1.14670932e+00, 1.73526645e-01,
          2.18167633e-01, 4.39148217e-01, 1.62904039e-01, 3.12953258e+00,
          7.07379401e-01, 1.18503153e+00, -3.96592170e-01,
          4.45860004e+00, 2.62183356e+00, -3.82981449e-01,
          -6.67619884e-01, 2.09140778e+00, 1.58263075e+00,
          9.01195943e-01, 1.89662516e-01, 1.68617380e+00, 1.74027726e-01,
          -3.79688293e-01, 4.38886225e-01, 1.50803125e+00,
          -2.41369531e-01, 8.07129204e-01, 4.19272631e-01,
          2.17717364e-01, 2.68795282e-01, 5.68681896e-01, 1.94521582e+00,
          6.75010681e-01, 4.25462633e-01, 1.84741139e-01,
          -5.39636075e-01, 1.31501138e+00, -4.61486012e-01,
          1.69626534e-01, 1.90541494e+00, 3.60862517e+00, 1.41931736e+00,
          2.07518220e+00, -1.78248987e-01, 1.97756183e+00,
          -3.84400487e-02, 1.97750175e+00, 2.03522825e+00,
          1.21571922e+00, 6.06894779e+00, 2.64600515e+00, 1.94488847e+00,
          5.02833843e-01, 8.08070064e-01, -9.07482430e-02,
          -4.88039069e-02, 7.38169312e-01, -3.79277647e-01,
          -1.38880238e-01, -3.29720885e-01, 5.74381888e-01,
          -2.65581578e-01, 2.29071522e+00, 1.56819057e+00,
          9.43276048e-01, 2.28898478e+00, -4.93665606e-01,
          1.84578812e+00, 3.09499234e-01, 1.22753036e+00, 4.81668591e-01,
          3.62746090e-01, -5.54817975e-01, -1.55526608e-01,
          1.48949265e-01, 7.48429060e-01, -2.52100062e-02,
          -3.89548689e-01, 1.05148196e+00, 9.01309699e-02,
          2.19907665e+00, 1.91987693e-01, -3.62574369e-01,
          1.14288971e-01, -8.36198106e-02, -2.44117141e-01,
          3.85141253e-01, 1.55298695e-01, -6.55091852e-02,
          1.63585514e-01, -2.11118534e-01, 6.45622075e-01,
          -5.37730634e-01, 7.52722442e-01, -3.71501386e-01,
          1.39246809e+00, 9.15899649e-02, 3.29156232e+00, 6.95752203e-01,
          1.69167745e+00, 1.52676940e-01 ]
      - [ 1.57907367e+00, 1.02033339e-01, -7.72938877e-03,
          1.26824975e+00, 2.35775089e+00, 1.52792776e+00,
          -4.61095154e-01, 2.10621452e+00, 2.20859838e+00,
          -4.51541930e-01, -1.04301885e-01, 3.99267364e+00,
          4.25486714e-02, 8.31102073e-01, 1.14012599e+00,
          -1.45507455e-01, -4.46689606e-01, 4.22730893e-01,
          1.02178529e-02, -1.72292694e-01, 2.14419603e-01,
          -3.73026997e-01, -3.27009708e-01, 1.15142953e+00,
          -1.62881225e-01, 2.67139494e-01, -3.76627296e-01,
          -2.85723329e-01, 2.58890569e-01, 5.04385948e-01,
          1.40998617e-01, 1.53603292e+00, 7.36092150e-01,
          -1.12334371e-01, 1.19156456e+00, 3.99929702e-01,
          5.11561573e-01, 1.96172857e+00, 1.55019438e+00, 3.15738535e+00,
          -3.23407650e-01, 3.42771232e-01, 2.52540731e+00,
          -2.68100172e-01, -3.20448190e-01, 4.47231245e+00,
          1.06113625e+00, 6.02873385e-01, -1.50978017e+00,
          1.69077218e+00, 7.02152729e-01, 3.17029929e+00, 2.10133505e+00,
          1.56130779e+00, 3.22042274e+00, 4.95703602e+00, 3.23228002e+00,
          3.14388490e+00, 1.94754851e+00, 2.12572074e+00, 5.94646692e+00,
          2.59975731e-01, 1.50191462e+00, 4.97469854e+00, 3.79639316e+00,
          4.03127074e-01, 1.04984415e+00, 1.31110072e+00, 8.15771759e-01,
          1.61877954e+00, 3.59171897e-01, 1.62868750e+00,
          -5.76478951e-02, 8.98736358e-01, 9.54951763e-01,
          2.43751359e+00, -8.59248042e-02, 3.87932569e-01,
          1.20706096e-01, 1.94457698e+00, 9.54911470e-01, 7.19485581e-01,
          -4.40955698e-01, 4.39294502e-02, 1.43464327e-01,
          -1.51745662e-01, 3.72832753e-02, 6.39587641e-01,
          7.03467071e-01, -4.54055339e-01, -3.26742440e-01,
          1.89366746e+00, 1.00077868e+00, -3.82911563e-01,
          1.14885807e+00, 2.31224203e+00, 1.92646980e-01, 1.35334298e-01,
          3.78997862e-01, 9.19180214e-01, 1.54198015e+00, 9.78780687e-02,
          7.94779599e-01, 2.21530104e+00, -5.28945588e-02,
          4.93953854e-01, 9.80612993e-01, 7.74985492e-01,
          -4.05852228e-01, -3.43086630e-01, -4.60276753e-01,
          -2.23962605e-01, -3.26320797e-01, 1.30286142e-01,
          5.05846776e-02, 7.93537274e-02, 5.26695251e-01,
          -1.08847052e-01, 5.56273311e-02, 1.26729941e+00,
          -1.13145337e-01, 1.00455606e+00, 5.36095333e+00,
          7.73403108e-01, -1.16333254e-01, 2.05270350e-01,
          -2.20272809e-01, 3.39829302e+00, 4.88883108e-01,
          1.01215459e-01, 3.69177721e-02, -5.22470951e-01,
          -1.98494002e-01, 1.45818961e+00, 2.33172655e+00,
          2.22437286e+00, 9.16553378e-01, 1.64813292e+00, 2.57290125e+00,
          1.22368586e+00, 2.35600471e+00, 5.55860472e+00, 8.80288720e-01,
          8.34862411e-01, 7.27522552e-01, 5.52983224e-01, 2.09141359e-01,
          -3.15321714e-01, 1.29384053e+00, 1.05643964e+00,
          1.89107049e+00, 3.16551256e+00, 6.25678360e-01, 2.78495014e-01,
          1.16411710e+00, -4.14699912e-01, 1.85338867e+00,
          5.02131462e-01, -6.20269716e-01, 3.27125525e+00,
          1.00636029e+00, 1.33961692e-01, 3.38792562e-01, 8.42887461e-01,
          1.17441058e+00, -4.25538063e-01, 1.98745358e+00,
          2.71506596e+00, 3.59225832e-02, -3.22090596e-01,
          3.28547549e+00, 6.00554824e-01, -5.61848760e-01,
          1.01783442e+00, 4.47043270e-01, 1.12054718e+00, 8.19306195e-01,
          5.01792490e-01, 7.43808508e-01, 6.93179786e-01, 6.83004618e-01,
          8.74654055e-01, 5.04194438e-01, 7.42199004e-01, 4.69471276e-01,
          5.82888067e-01, 5.31679451e-01, 7.43977964e-01, 3.40958893e-01,
          4.06105709e+00, 1.86513633e-01, 3.65169913e-01 ]
      - [ 1.37325025e+00, 5.35971880e+00, 3.44123960e+00, 5.04336715e-01,
          1.94631875e-01, -1.33717448e-01, 1.74404889e-01,
          2.20056534e+00, 1.02854657e+00, 1.73925366e-02, 1.21053100e+00,
          1.02146804e+00, 6.75453246e-01, -3.08580399e-01,
          -6.58456922e-01, -3.93466622e-01, -3.85804027e-01,
          -3.65711540e-01, -4.94936779e-02, -3.45883846e-01,
          -4.56531644e-01, 6.98785409e-02, 1.30701125e-01,
          6.90832436e-02, 3.67997617e-01, -1.06139898e-01,
          7.55155981e-01, 2.02062488e+00, 2.42698836e+00,
          -3.87079604e-02, -1.66688375e-02, 1.11808777e+00,
          -3.37537855e-01, -8.32421938e-05, 9.83895183e-01,
          -4.57474440e-01, 6.16267800e-01, 3.44510406e-01,
          5.60416877e-01, 2.89702322e-03, -4.14211124e-01,
          6.50652289e-01, 9.90740001e-01, 7.86380231e-01, 1.82549012e+00,
          -2.49439493e-01, -2.54579782e-01, -2.10103378e-01,
          -6.92860186e-01, 4.86376619e+00, 3.21358275e+00,
          -2.64494151e-01, 4.24097747e-01, 1.98780358e-01,
          2.67541671e+00, 1.34245539e+00, 1.94745982e+00, 2.92169273e-01,
          1.12118769e+00, 8.32407653e-01, 1.15940535e+00, 8.60478759e-01,
          2.17442417e+00, -6.09774113e-01, 8.09875950e-02,
          2.98283637e-01, 2.40981340e-01, -2.34818578e-01,
          1.88733125e+00, -4.46045548e-01, 1.20910144e+00,
          5.17482638e-01, 3.74466956e-01, 1.17121376e-01, 2.32212591e+00,
          -2.02036783e-01, 3.65993786e+00, 3.00563860e+00,
          -5.19905806e-01, 2.14268255e+00, -5.95665753e-01,
          1.31782204e-01, 5.68497539e-01, 9.05563116e-01,
          -1.08900294e-01, 3.90248090e-01, -1.65691257e-01,
          1.21287560e+00, 1.12718664e-01, -3.54995787e-01,
          -1.32474393e-01, -7.85858557e-03, -2.75427639e-01,
          1.09320784e+00, 1.76069117e+00, 1.95462978e+00,
          -4.12620038e-01, -1.24795318e-01, -3.34621996e-01,
          1.13259435e+00, -3.06020409e-01, 1.05216630e-01,
          3.31814981e+00, 7.02432537e+00, 3.41305542e+00, 5.23065269e-01,
          -1.44399419e-01, 1.95900428e+00, 1.53057492e+00,
          -6.15329802e-01, 9.61552680e-01, -1.74395770e-01,
          -1.36016849e-02, -1.35335669e-01, -5.90312839e-01,
          -3.50828022e-01, -4.21521246e-01, 1.31249815e-01,
          7.34026432e-01, 2.22401738e+00, 1.74115360e+00, 7.01495647e-01,
          5.85922182e-01, 2.15786839e+00, 9.22317028e-01, 2.29033160e+00,
          -1.43032923e-01, 3.66729945e-01, 7.86133409e-01,
          -6.85451090e-01, 3.29867154e-01, 1.84472585e+00,
          1.38458431e+00, 1.04526210e+00, -2.20014453e-01,
          1.07728191e-01, 2.33766985e+00, 6.61743522e-01, 1.71411777e+00,
          5.68682075e-01, -5.06832957e-01, 1.70117033e+00,
          9.79585588e-01, 2.16505623e+00, 9.30438399e-01, 1.80819440e+00,
          1.32362533e+00, -1.43297672e-01, 1.60701260e-01,
          1.12460947e+00, 4.16862345e+00, 3.62493062e+00, 4.23833996e-01,
          1.09916937e+00, 6.46174908e-01, 2.57142615e+00,
          -6.20563507e-01, 1.37740993e+00, 1.69062698e+00,
          2.25246024e+00, -4.49043810e-02, -3.62788588e-01,
          6.67860508e-01, -5.46342552e-01, -5.03167629e-01,
          6.09330833e-01, 8.27122808e-01, 2.95352936e+00,
          -4.38753366e-01, 3.84291261e-01, 1.34778655e+00,
          3.04454350e+00, 1.22700572e+00, -3.61956745e-01,
          -6.37446642e-02, 8.65480900e-02, 5.54940045e-01,
          -1.02513239e-01, 4.72114712e-01, -4.73115772e-01,
          2.31396958e-01, -3.22587997e-01, 1.77478135e-01,
          -5.33309340e-01, -1.87924519e-01, -2.77931958e-01,
          1.45111680e-01, -1.58394068e-01, 7.17128873e-01,
          -5.20469129e-01, 3.25536638e-01, 5.38463406e-02 ]
      - [ 1.54250383e+00, -1.70702010e-01, 2.50434369e-01,
          -2.61759460e-01, -1.01961888e-01, 2.14100868e-01,
          3.33020717e-01, -3.30958754e-01, 1.52708098e-01,
          2.21179962e+00, 2.29358649e+00, 1.80248737e+00, 1.86132526e+00,
          2.42562366e+00, 8.16430449e-01, 1.77549899e+00, 5.72277606e-01,
          1.54835567e-01, 3.24278176e-02, -5.04962914e-02,
          1.05416447e-01, 1.07500851e+00, 5.29818416e-01, 1.41418552e+00,
          1.21909392e+00, 7.92794675e-02, 1.36819109e-01,
          -4.27932650e-01, 1.14090753e+00, 3.51793528e-01,
          5.59921563e-01, 9.85517323e-01, 5.10491431e-01, 3.23704511e-01,
          1.84595570e-01, -3.32032889e-01, 3.05927768e-02,
          -2.37615332e-01, 3.35985303e-01, 6.08179212e-01,
          8.16641226e-02, 4.92121160e-01, 9.62305129e-01, 2.05518866e+00,
          2.61911607e+00, 2.70521784e+00, 1.29057813e+00, 3.51561379e+00,
          -1.48879659e+00, 6.27687037e-01, 8.53633940e-01,
          1.75509846e+00, 1.58515692e+00, 2.17977309e+00, 7.99085021e-01,
          3.47787499e-01, -4.81654048e-01, 1.21565834e-01,
          5.31195462e-01, -4.16906387e-01, 1.68444410e-01,
          5.81790111e-04, -3.40371698e-01, 4.87378627e-01,
          2.69230008e-01, 2.30471045e-01, 1.54234409e+00,
          -6.50928199e-01, 6.30044043e-01, 8.89670432e-01,
          4.42118675e-01, 8.32860351e-01, 5.43869734e+00,
          -2.26693735e-01, -1.88844040e-01, 1.49124237e-02,
          -5.19219935e-02, -2.57028818e-01, 1.04080296e+00,
          5.14944971e-01, -3.67538095e-01, -2.40175918e-01,
          -2.85417676e-01, -5.50146461e-01, 1.66937113e-01,
          -2.41306260e-01, -3.37858826e-01, -4.20361936e-01,
          -1.88981384e-01, 2.98120022e-01, 3.27865273e-01,
          5.82294405e-01, 1.00865746e+00, 1.48457885e+00, 1.75836459e-01,
          1.42852318e+00, -9.96201932e-01, 3.56779909e+00,
          1.00373936e+01, 6.84076738e+00, 3.73697400e+00, 5.23146677e+00,
          7.11098313e-01, -2.74982154e-01, -4.39014822e-01,
          3.99015784e+00, -2.38159060e-01, 8.64129782e-01,
          4.04584599e+00, 2.40368581e+00, -3.58807355e-01,
          7.67108083e-01, 6.92633629e-01, 1.25327751e-01,
          -2.91019619e-01, -2.23346516e-01, 2.03099921e-02,
          5.21468639e-01, 8.07413280e-01, 3.73764420e+00,
          -5.61286092e-01, 4.34285879e+00, 2.27780914e+00,
          2.36544818e-01, -2.78232813e-01, 1.92645729e+00,
          1.82153866e-01, 1.73350140e-01, 2.19175959e+00, 1.38968658e+00,
          9.52962160e-01, 1.82658648e+00, 5.11612415e+00,
          -3.93050253e-01, 2.53820896e+00, 4.88615704e+00,
          3.85281777e+00, 2.40247369e+00, 3.61082292e+00, 2.37409472e+00,
          1.05768979e+00, 4.91568422e+00, 1.46049204e+01, 5.05462170e+00,
          1.12076724e+00, 6.46746695e-01, 7.77471304e-01, 2.43496418e+00,
          1.08429539e+00, 1.45048964e+00, 9.33343887e-01, 2.65530974e-01,
          4.86066826e-02, -2.82954663e-01, -5.35752714e-01,
          1.68487096e+00, 2.69200444e+00, 1.48637187e+00, 3.74307543e-01,
          -4.93236810e-01, -4.75017250e-01, 2.05048934e-01,
          -5.09094179e-01, 7.65803874e-01, 4.50167388e-01,
          -3.19464296e-01, -2.62403876e-01, 1.66538250e+00,
          2.19837737e+00, 2.56297886e-01, -3.12574893e-01,
          -5.07466197e-01, 8.66341650e-01, -4.61970866e-01,
          9.57123399e-01, 5.09759486e-01, 1.92118630e-01,
          -3.48829776e-01, -3.10908109e-01, -2.37182155e-01,
          4.24074173e-01, -4.07621801e-01, 1.28124684e-01,
          -3.45118433e-01, -2.40565732e-01, -4.99654889e-01,
          6.11435890e-01, 2.55632877e-01, 2.03693700e+00, 7.78515756e-01,
          8.08708131e-01, 1.96547759e+00 ]
      - [ 2.06534886e+00, 4.57800031e-01, 1.84232056e+00, 1.47273660e-01,
          1.26571381e+00, 9.55615401e-01, -3.37793440e-01,
          2.24107099e+00, 2.99264163e-01, 3.75954485e+00,
          -6.01903982e-02, 2.51092005e+00, 6.84623778e-01,
          -6.51546955e-01, 3.81765747e+00, 1.55950916e+00,
          2.34385490e+00, 1.40265501e+00, 2.57432365e+00, 6.44074604e-02,
          1.43122542e+00, -3.09113145e-01, 2.18908891e-01,
          9.44972187e-02, 5.24377048e-01, 6.62644327e-01,
          -7.42037669e-02, 2.57599596e-02, -2.49096125e-01,
          1.47364986e+00, 2.43397045e+00, 6.22744143e-01, 4.58577156e+00,
          2.74950266e-01, 4.39975834e+00, -3.45240623e-01,
          5.90325785e+00, 1.09019208e+00, 5.33403349e+00,
          -5.84065378e-01, 3.30254483e+00, 7.79378295e-01,
          1.71310437e+00, 4.32675123e+00, 2.09705305e+00, 3.17472249e-01,
          4.62938786e+00, 1.75844744e-01, -1.35083628e+00,
          -3.78369719e-01, 6.75904602e-02, -9.47695971e-02,
          9.95793879e-01, 3.45047921e-01, 8.52516949e-01, 9.76792693e-01,
          2.00982833e+00, 1.77625604e-02, 1.54019189e+00,
          -5.46762288e-01, 1.20010352e+00, -3.86923134e-01,
          1.89474654e+00, 8.26785624e-01, 3.67776918e+00, 1.27693570e+00,
          2.67810035e+00, 2.59109616e-01, 3.48916388e+00, 5.03485262e-01,
          4.57199383e+00, 4.80068564e-01, 8.29071045e+00, 1.31958413e+00,
          2.38403821e+00, 1.56488150e-01, 1.21199799e+00,
          -3.04694027e-01, 2.16305876e+00, 4.85469520e-01,
          1.08072340e+00, -2.10377842e-01, 5.73013604e-01,
          -2.93968350e-01, 5.65768242e-01, -3.91288310e-01,
          1.07326937e+00, 7.37685621e-01, 4.01000202e-01, 6.98558331e-01,
          2.36940694e+00, -1.67774573e-01, 5.93730330e-01,
          6.34961367e-01, 1.02502406e+00, 5.00343621e-01, 5.82980037e-01,
          4.08924520e-01, 1.39408946e+00, -8.71432573e-02,
          9.40443933e-01, -4.32132572e-01, -8.00881684e-02,
          4.54222448e-02, 4.26698327e-01, 6.51278591e+00, 2.42162418e+00,
          3.18354750e+00, 2.72351885e+00, -3.94398034e-01,
          -3.53760272e-01, 7.60032237e-01, 1.97887123e+00,
          1.60283864e+00, 1.63914955e+00, 1.99296069e+00,
          -3.11284751e-01, 2.29120195e-01, 3.32627475e-01,
          2.52601790e+00, 5.58708525e+00, -4.06676441e-01,
          2.72571397e+00, 2.17166829e+00, 1.21351004e+00, 3.54849041e-01,
          1.66201687e+00, 1.04530787e+00, 1.28136539e+00, 4.66711044e+00,
          3.02227354e+00, 3.84187698e+00, 1.05067587e+00, 2.19902921e+00,
          1.85513747e+00, 8.78607810e-01, 3.96658134e+00, 4.50219011e+00,
          3.24883294e+00, 2.11223388e+00, 4.67934418e+00, 3.89717937e-01,
          1.70025682e+00, -1.03271548e-02, 2.49611115e+00,
          -1.74276143e-01, 2.80427486e-01, -1.83227975e-02,
          3.93979222e-01, 1.28764492e-02, -1.93953201e-01,
          3.88189197e-01, -2.20384464e-01, -1.58473030e-01,
          1.12550449e+00, 2.69505680e-01, 1.38125777e+00, 7.94475555e-01,
          1.78065360e+00, 4.31170881e-01, -4.42045122e-01,
          1.31897345e-01, 3.22177148e+00, -1.68092161e-01,
          1.67053521e+00, 3.61189581e-02, 1.49920917e+00, 1.40272605e+00,
          1.54446411e+00, 1.07330453e+00, 8.74326468e-01, 5.07268012e-01,
          -2.65425015e-02, 1.38513601e+00, 4.72195536e-01,
          1.60737455e-01, 1.98051929e+00, 9.40387905e-01, 1.78808844e+00,
          -4.11139913e-02, 1.73059976e+00, -5.56352258e-01,
          1.36401224e+00, -3.00718427e-01, 9.97881293e-01,
          -3.42999399e-01, 1.33636236e+00, 1.50702858e+00,
          1.57341218e+00, -1.02220364e-01, 4.23863029e+00,
          -2.65584558e-01 ]
      - [ 1.08868015e+00, 6.88216448e+00, 4.36309433e+00,
          -1.10579602e-01, -3.34963918e-01, 3.03982258e+00,
          -4.11386073e-01, 2.08679461e+00, 1.36779535e+00,
          4.13604081e-01, 9.01865661e-01, 4.67417002e+00, 4.04543221e-01,
          3.33891273e-01, 1.55605412e+00, 1.44567800e+00, 8.61262918e-01,
          2.10574460e+00, -5.96762240e-01, -1.35340959e-01,
          2.63268948e-02, 1.39431751e+00, 5.23900867e-01,
          -4.87574935e-01, 2.67106175e+00, -1.41396835e-01,
          1.98829997e+00, 1.69293725e+00, 4.25724894e-01, 2.16912389e+00,
          2.09895301e+00, 3.51256657e+00, 5.19366860e-01, 1.20456803e+00,
          5.56326914e+00, 3.81769490e+00, -5.23254812e-01,
          4.06475973e+00, -3.51215601e-01, 8.10557544e-01,
          2.02546644e+00, -4.71114248e-01, 2.23519325e+00,
          2.50087667e+00, -3.97608221e-01, 1.00171351e+00,
          1.40890443e+00, 3.01934391e-01, -1.31163502e+00,
          8.97568035e+00, 8.15212440e+00, 1.85154498e+00,
          -3.35256904e-01, 1.35435331e+00, 1.65415883e+00,
          1.56719613e+00, 1.29233325e+00, 5.92768240e+00, 6.42981339e+00,
          1.00381148e+00, 3.43279028e+00, 4.20405960e+00, 8.50679934e-01,
          5.43480575e-01, 3.82698011e+00, 3.09639072e+00, 8.18604648e-01,
          1.88851833e+00, 5.64753592e-01, 5.65817595e-01, 3.12286675e-01,
          -5.05063822e-03, 1.94810957e-01, -7.32624009e-02,
          2.52101755e+00, 3.53893328e+00, -1.48090934e-02,
          7.26149440e-01, 7.82845795e-01, -1.55037194e-01,
          1.95506370e+00, -3.14030081e-01, 7.50902057e-01,
          1.71016884e+00, 6.28736675e-01, -1.81468591e-01,
          1.31189191e+00, -2.63283342e-01, 5.17179072e-01,
          2.53808975e-01, 8.24327946e-01, -2.80143827e-01,
          -2.94458240e-01, 1.12363771e-01, -1.76875934e-01,
          5.07354796e-01, -1.03101623e+00, 3.16442990e+00,
          1.29088831e+00, -4.64491785e-01, 3.59622836e+00,
          2.27647161e+00, 2.36080885e+00, 3.65744901e+00,
          -1.71434551e-01, 5.26505470e+00, 1.73620856e+00,
          2.84006333e+00, 3.58942795e+00, -5.66501975e-01,
          -5.48057973e-01, -4.18400705e-01, -4.20519203e-01,
          8.41518819e-01, -2.74942130e-01, 7.61098862e-01,
          2.02491617e+00, 3.65504861e-01, 9.93905604e-01, 2.42355871e+00,
          1.47494972e+00, 1.60437787e+00, 1.36313722e-01, 2.26192904e+00,
          2.29197145e+00, 5.76074049e-02, 1.33700764e+00, 3.38218927e+00,
          -4.26288456e-01, 3.11932516e+00, 3.67393613e+00,
          6.24686003e+00, 3.43200707e+00, 1.50196874e+00, 5.12411547e+00,
          1.48877037e+00, 2.04494238e+00, 4.36885500e+00, 2.95596540e-01,
          -1.02018453e-01, 9.94057730e-02, 1.16994388e-01,
          9.72091794e-01, 1.74485207e+00, 1.13554299e+00, 5.62097609e-01,
          -2.55448103e-01, 3.28415364e-01, 1.01885319e+00,
          2.20602417e+00, 9.86928880e-01, -3.52112293e-01,
          4.41466898e-01, 4.17975807e+00, 1.91137648e+00, 5.83071709e+00,
          1.45650065e+00, -5.67610025e-01, 1.54803431e+00,
          5.23663521e-01, 1.67294896e+00, 3.07797265e+00,
          -3.72017950e-01, 8.01349521e-01, 1.75877899e-01,
          6.10102475e-01, -5.23003459e-01, 8.38335693e-01,
          5.38215780e+00, -3.43756258e-01, 1.43580019e+00,
          2.02949882e+00, 1.10152864e+00, 6.24516726e+00, 2.68824959e+00,
          2.29405212e+00, 1.14604270e+00, -5.29423952e-01,
          1.83197784e+00, 3.23646963e-01, -2.72934824e-01,
          7.34978080e-01, -2.79798418e-01, 3.08098942e-02,
          3.90940189e-01, -2.23144412e-01, 1.25053978e+00,
          1.27507722e+00, -5.32729983e-01, 1.67022443e+00,
          8.35830152e-01, 3.35616380e-01 ]
      - [ 1.69101620e+00, -4.96945441e-01, -2.61116743e-01,
          -4.29597497e-01, -5.74846029e-01, -2.53119200e-01,
          -6.44418776e-01, -3.01871151e-01, 5.31554997e-01,
          -4.82398421e-02, -6.60659606e-03, 2.95861095e-01,
          -4.41249162e-01, -6.88592792e-01, -3.20867181e-01,
          8.26033428e-02, -6.13110900e-01, 1.04078008e-02,
          -5.81942916e-01, -5.21920621e-01, 6.88170418e-02,
          -2.86960125e-01, 1.71942964e-01, -2.71592706e-01,
          -3.66992116e-01, 1.88354224e-01, -1.12474918e-01,
          -1.52789682e-01, 3.69925141e-01, 2.62082130e-01,
          8.17619562e-01, 3.99071783e-01, 9.69050825e-01,
          -2.98743725e-01, 1.53542966e-01, -2.26946473e-01,
          -3.74388427e-01, -2.97802418e-01, 3.38456303e-01,
          -2.68810362e-01, -5.21261096e-01, 2.55397677e-01,
          4.25109640e-02, 6.17690459e-02, 1.06216204e+00,
          -2.51682341e-01, 2.76749283e-01, 4.47363049e-01,
          -1.45966303e+00, 1.82824481e+00, 7.43666291e-01,
          9.57940042e-01, 1.55223000e+00, 4.24534678e-02, 9.68465805e-01,
          -9.61662456e-02, -4.38835055e-01, 6.89816996e-02,
          4.44201022e-01, 3.13416541e-01, -3.38343263e-01,
          -4.31017786e-01, -5.93313277e-01, 1.27799451e-01,
          -5.82641542e-01, -3.92148763e-01, -7.96314850e-02,
          1.08534377e-02, 5.73777914e-01, -3.69546235e-01,
          1.12159170e-01, 2.94905990e-01, 3.38717401e-02,
          -2.03337535e-01, 2.92471623e+00, 1.30344361e-01,
          3.07127684e-01, 8.82721126e-01, -4.30178605e-02,
          -5.68488657e-01, -1.22538827e-01, -1.68183833e-01,
          8.73991400e-02, -7.28990957e-02, -5.74420273e-01,
          9.27681148e-01, -2.28112713e-01, 7.57467508e-01,
          -4.45772916e-01, 3.13595794e-02, -1.80447116e-01,
          1.30043998e-01, -2.85589188e-01, 1.13065310e-01,
          1.04386151e+00, 1.78916776e+00, -7.53935203e-02,
          -3.86405170e-01, 1.85761595e+00, -1.01767983e-02,
          8.49791110e-01, 7.00871587e-01, 2.02318951e-01, 9.97651577e-01,
          1.65900564e+00, -5.36465824e-01, -5.20584024e-02,
          -4.88050878e-01, 1.52554274e+00, 1.53396821e+00,
          7.89488792e-01, 7.12179005e-01, 1.08981855e-01, 2.92383507e-02,
          -5.89983702e-01, 8.35090160e-01, -4.92189348e-01,
          -2.77547389e-01, -2.81883359e-01, 1.03795230e+00,
          2.80191004e-01, 2.04325747e+00, -3.67229097e-02,
          3.39479327e+00, -1.72329172e-01, 1.74439156e+00,
          7.24671066e-01, 6.84825957e-01, 2.61995494e-01, 1.01816046e+00,
          -5.49171388e-01, 1.64282084e+00, 9.11361992e-01,
          2.95604682e+00, -5.52108228e-01, 3.03567195e+00,
          -4.79873955e-01, 1.07938600e+00, 1.28537464e+00,
          6.72920704e-01, 1.44586444e+00, 1.03917754e+00, 1.33632720e+00,
          1.23558092e+00, 6.55111015e-01, 1.66644663e-01,
          -9.63636637e-02, 2.81160325e-01, 1.52285233e-01,
          2.82001227e-01, 3.13693821e-01, -2.03214690e-01,
          -5.15237033e-01, -2.83016980e-01, -2.31431961e-01,
          7.44949430e-02, 1.21087933e+00, -1.72852263e-01,
          4.68738467e-01, -6.87586516e-02, -4.02088493e-01,
          -6.12134457e-01, -4.06063229e-01, -4.93205905e-01,
          4.85719591e-01, -4.57547784e-01, -5.04785895e-01,
          -2.00539306e-01, 4.50793773e-01, 6.23490751e-01,
          2.42857838e+00, 5.93465865e-01, -8.42569470e-02,
          2.35144779e-01, 1.18626428e+00, -5.64042866e-01,
          1.55257687e-01, -4.57747251e-01, -3.06538731e-01,
          -5.65204501e-01, -3.72922897e-01, -1.66644379e-01,
          7.44863078e-02, -1.88638836e-01, -2.87955463e-01,
          -1.97659224e-01, 3.23404483e-02, -2.37496689e-01,
          7.98114181e-01, -4.73517403e-02, 1.13340594e-01,
          6.75371826e-01 ]
      - [ 1.38014746e+00, -4.50333327e-01, -4.47961718e-01,
          1.96441793e+00, -3.95697773e-01, 5.72089851e-01,
          2.16168657e-01, 1.12988937e+00, -6.52145296e-02,
          7.23417163e-01, -2.10997730e-01, 3.85820508e-01,
          -5.12132585e-01, -6.71075523e-01, -3.31232846e-01,
          1.16687489e+00, -6.28268540e-01, -3.64085376e-01,
          -5.07404923e-01, 2.99144030e-01, -2.73892999e-01,
          -2.55009681e-01, 2.50870496e-01, -2.16857240e-01,
          -2.16313168e-01, 3.01998615e-01, 9.40354645e-01,
          1.86835945e-01, 8.48294139e-01, 1.44656634e+00,
          -1.45501167e-01, -5.13543427e-01, 1.30773172e-01,
          7.77984560e-01, 3.98112148e-01, -2.61072904e-01,
          7.58766651e-01, 2.55310655e+00, -2.04782993e-01,
          -7.11347610e-02, 1.18680310e+00, 9.69243467e-01,
          9.70002055e-01, 9.58778381e-01, 4.68598753e-01,
          -8.10309313e-03, 2.33235702e-01, 3.27586144e-01,
          -1.32756627e+00, 2.74268389e-02, 1.66653919e+00,
          1.11179590e+00, -2.83275455e-01, 1.92519522e+00,
          -2.82667816e-01, 6.70543134e-01, 1.30715525e+00,
          2.52031970e+00, 7.10146368e-01, -2.95833908e-02,
          1.57006431e+00, 7.82891452e-01, 1.10844277e-01,
          -5.61096728e-01, 1.53649664e+00, 8.13977897e-01,
          2.77102068e-02, -4.54214036e-01, 1.68466166e-01,
          4.12476510e-01, 1.28975046e+00, -2.84341127e-01,
          2.59449363e-01, -2.09265247e-01, 2.23858452e+00,
          8.05398464e-01, 2.14879417e+00, 1.42731890e-01, 2.12227404e-01,
          -5.33542395e-01, -2.52006531e-01, 2.98910707e-01,
          3.21963429e-01, 2.33976975e-01, -4.90400523e-01,
          -1.08639166e-01, -4.41843271e-02, -5.12509465e-01,
          8.75855163e-02, -4.92481619e-01, 7.61630297e-01,
          -4.29501384e-01, 1.69351053e+00, -4.82224673e-02,
          2.87993699e-01, 4.48656082e-01, 1.21450520e+00, 6.54853404e-01,
          -3.63938838e-01, 2.52326226e+00, -1.19923890e-01,
          -1.56853452e-01, 9.87232208e-01, 2.88711101e-01,
          9.60868180e-01, 2.34141898e+00, 8.87159884e-01, 9.00504053e-01,
          -6.70204520e-01, 7.93042481e-02, 6.80401087e-01,
          -5.05002916e-01, -3.83375823e-01, -1.81776747e-01,
          -4.74712223e-01, 1.81966219e-02, -6.73987195e-02,
          -2.22293019e-01, -8.11907873e-02, -3.01890761e-01,
          -6.81905672e-02, 7.90598571e-01, 1.68526995e+00,
          3.52622008e+00, 5.98865688e-01, -2.32249409e-01,
          -3.18183124e-01, 6.91982448e-01, 2.71405935e-01,
          -4.56370145e-01, -3.16398352e-01, -6.57353103e-01,
          -4.55812693e-01, 8.51468265e-01, 3.91236484e-01,
          -2.92506635e-01, 1.18742251e+00, 1.62960911e+00,
          1.42912641e-01, -5.80516636e-01, 1.96466315e+00,
          1.12673569e+00, 3.38070607e+00, 7.40351915e-01, 6.36792481e-01,
          1.09122527e+00, 6.78994894e-01, -2.51688182e-01,
          -2.48400435e-01, 2.91698396e-01, -2.38951854e-02,
          1.77836347e+00, 9.91233647e-01, 8.39528501e-01, 3.79843324e-01,
          -4.59714174e-01, -4.34319079e-01, -1.22323595e-01,
          1.18104860e-01, 4.81739402e-01, 1.48590147e+00,
          -3.71202141e-01, 3.33291829e-01, -5.14904223e-02,
          3.28723729e-01, -3.37952614e-01, -5.27189672e-01,
          2.17653319e-01, -5.07217526e-01, 4.27154541e-01,
          5.96373200e-01, 2.33308911e+00, 1.93084526e+00, 1.07494664e+00,
          -1.96361795e-01, -6.57009125e-01, 4.07498002e-01,
          2.21524145e-02, 2.85965025e-01, -5.60815454e-01,
          -4.83208261e-02, 1.34131098e+00, -4.76359367e-01,
          -5.22257566e-01, -1.75420344e-01, 7.56905138e-01,
          5.10820985e-01, 2.46265784e-01, -1.66418403e-01,
          3.72437574e-02, 5.77796459e-01, 5.03082275e-01 ]
      - [ 1.37349844e+00, 2.79501009e+00, 3.18933868e+00, 2.28404331e+00,
          8.98977399e-01, -2.67801523e-01, 2.72585541e-01,
          9.44640100e-01, 8.22969079e-01, 1.72447503e+00, 1.18288487e-01,
          2.59952164e+00, 5.82157195e-01, 6.42235637e-01, 7.17360258e-01,
          8.01673532e-01, -5.67404151e-01, 1.10057354e+00,
          -1.43298209e-01, -3.70282441e-01, -2.87567556e-01,
          7.11196214e-02, 1.56752157e+00, 1.75719059e+00, 1.09318471e+00,
          7.35871196e-01, 1.29176348e-01, 3.78383666e-01,
          -8.62746406e-03, 5.63069940e-01, 6.92859650e-01,
          1.89360750e+00, -2.95699745e-01, -3.90825868e-01,
          -2.48222381e-01, -5.52299380e-01, -1.58674851e-01,
          9.56032038e-01, 1.01151276e+00, 5.44771254e-01,
          -1.74707808e-02, 1.17865586e+00, 1.33973861e+00,
          -4.74328518e-01, 1.57342184e+00, -4.03512537e-01,
          2.07232937e-01, 2.89334089e-01, -1.40744388e+00,
          1.26073134e+00, 1.95707250e+00, 1.59439385e+00, 2.85461634e-01,
          6.74219668e-01, 1.09003544e+00, -1.99684143e-01,
          1.39695656e+00, 8.30517411e-01, -1.51668727e-01,
          -2.05755830e-01, 3.61183226e-01, 2.91713536e-01,
          9.18436885e-01, -5.73779941e-01, -6.69983566e-01,
          2.18592477e+00, 7.09775090e-01, 2.76246518e-01, 8.07028785e-02,
          2.03355074e-01, -4.26513627e-02, 5.14740467e-01,
          2.62556314e-01, 9.17324901e-01, 1.96349752e+00, 1.94843388e+00,
          -4.14844677e-02, 7.10804403e-01, 1.86245477e+00,
          6.31162226e-01, 5.97321153e-01, -1.31466985e-01,
          6.75104320e-01, -3.84193182e-01, 3.20702821e-01,
          -3.64935935e-01, -1.30462125e-01, 1.10262859e+00,
          5.31760633e-01, -1.19457453e-01, -8.59116688e-02,
          -1.00828983e-01, -2.49148533e-01, -2.21049994e-01,
          4.55745697e-01, -2.32017368e-01, 7.12205946e-01,
          1.98176622e+00, 1.68435228e+00, 2.02246046e+00, 1.76436687e+00,
          2.61077642e+00, 2.99854732e+00, 1.59240437e+00, 2.11913896e+00,
          -1.72670633e-01, 5.73914230e-01, 1.97945023e+00,
          3.65542006e+00, 1.75354993e+00, 4.27048683e+00,
          -4.03665714e-02, 8.42346728e-01, 5.27881980e-01,
          9.11550283e-01, 2.54685819e-01, 1.38932598e+00,
          -2.64924020e-01, -8.64293277e-02, 1.69352043e+00,
          -4.42369312e-01, 2.04053259e+00, 2.18466806e+00,
          2.53480148e+00, -3.28409106e-01, 9.33499396e-01,
          1.16975772e+00, 7.09926486e-01, 1.23346889e+00, 6.93704069e-01,
          4.05351543e+00, 1.72910422e-01, -1.05568245e-01,
          9.14168894e-01, 7.38632321e-01, 7.45093763e-01, 4.22519982e-01,
          1.64012218e+00, 4.50035371e-02, 1.40818429e+00,
          -5.30857861e-01, 3.55516315e+00, 3.33994460e+00,
          1.42598832e+00, 6.32021070e-01, 6.28926039e-01,
          -3.30399573e-01, 6.00974709e-02, 1.08237910e+00,
          2.55332017e+00, 6.46155894e-01, 1.89007747e+00, 2.03799081e+00,
          2.77252495e-01, 9.10378516e-01, -1.31713867e-01,
          7.01555073e-01, 9.05367613e-01, 1.55753934e+00, 1.95850089e-01,
          1.53531694e+00, 3.12598944e-01, -9.61804390e-02,
          -2.32378885e-01, 5.43565899e-02, 9.20321524e-01,
          9.20840979e-01, -3.16839188e-01, 1.13558841e+00,
          -5.16817927e-01, 2.62903476e+00, -3.58703792e-01,
          -5.04735291e-01, -5.27644515e-01, -1.77891746e-01,
          -1.47603646e-01, 8.38915855e-02, 2.56000817e-01,
          2.45542318e-01, -2.89452463e-01, -2.24181175e-01,
          1.87758803e-01, -4.25239563e-01, 1.72660664e-01,
          -2.66531378e-01, 1.17712297e-01, -8.36983696e-02,
          -3.39924097e-01, 4.50353235e-01, -5.61926812e-02,
          1.09605290e-01, -1.31978951e-02 ]
      - [ 7.48039365e-01, 1.22435057e+00, 6.13823938e+00, 3.54080915e+00,
          2.43223882e+00, 7.95432138e+00, 1.97227919e+00, 8.69197369e+00,
          -5.92238843e-01, 3.47807217e+00, 6.71342993e+00,
          7.58638859e-01, 1.11543617e+01, 1.26759306e-01, 6.66787195e+00,
          3.09100103e+00, 2.15380549e+00, 7.96105742e-01,
          -5.72399139e-01, 2.47604415e-01, 5.12977481e-01,
          1.64071429e+00, 7.39074051e-01, 6.42546237e-01, 3.20117140e+00,
          -3.45920116e-01, -1.92744270e-01, 1.74408400e+00,
          5.76780527e-04, 2.96167898e+00, 3.87027442e-01, 2.06876373e+00,
          5.04160833e+00, 3.12204409e+00, 2.12885666e+00, 4.80814028e+00,
          1.55023742e+00, 3.53943419e+00, 1.08978367e+00,
          -8.66361409e-02, 2.50492716e+00, -1.30581334e-01,
          3.47816706e+00, 1.18540144e+00, 3.05923074e-01, 2.09796143e+00,
          4.08334923e+00, 9.99982166e+00, -1.47828639e+00,
          3.68039465e+00, 7.98121691e+00, 1.64151597e+00, 1.34922731e+00,
          7.12143719e-01, 6.59768391e+00, 2.56209636e+00, 1.03595161e+01,
          4.91007805e+00, 4.67035675e+00, 6.86713171e+00, 9.65259850e-01,
          -3.07323039e-01, 2.13747668e+00, -2.63485163e-01,
          3.19054079e+00, 3.91790777e-01, 2.45764017e+00,
          -2.52645224e-01, 5.30059218e-01, 2.80546069e-01,
          1.76706660e+00, 4.59629583e+00, 2.41555142e+00, 2.19345951e+00,
          -3.65559638e-01, 6.26813531e-01, 1.40172124e-01,
          3.69161338e-01, 2.79013328e-02, -1.69159696e-01,
          -3.40753973e-01, 1.90651774e+00, -4.11003409e-03,
          2.93113828e+00, 5.29263914e-01, -1.88483000e-01,
          1.39248325e-02, 2.61813521e+00, 1.29756832e+00, 2.08814287e+00,
          1.36438155e+00, 2.82016563e+00, 4.99495840e+00, 9.40922832e+00,
          2.06800199e+00, 2.20852137e+00, 6.22662425e-01, 2.08234954e+00,
          3.26120138e+00, 1.60123360e+00, 1.09986222e+00, 1.20389390e+00,
          -2.00542271e-01, 1.23923850e+00, 2.88395852e-01,
          3.74742985e+00, -3.32330525e-01, 3.85210919e+00,
          -5.35053253e-01, 2.90229246e-02, 1.06913376e+00,
          2.06640553e+00, 1.68739051e-01, 2.09780961e-01,
          -6.47848487e-01, 8.36053118e-02, 1.15992360e-01,
          3.82107556e-01, 4.46062028e-01, 3.96937490e+00, 2.87835360e+00,
          1.10241354e+00, 1.16435719e+00, 4.92864698e-01, 3.41181010e-01,
          8.27231944e-01, 1.26371694e+00, 1.68860984e+00, 1.75167334e+00,
          7.27476552e-02, -3.21561880e-02, 8.72606784e-02,
          1.54536092e+00, 3.22801918e-01, 4.33009386e+00, 8.64921927e-01,
          -6.99905828e-02, 1.03348815e+00, 2.30698556e-01,
          8.49576712e-01, -2.03932881e-01, 1.43089354e+00,
          3.26677775e+00, 1.64554005e+01, 1.04298317e+00, 1.87609568e-02,
          3.14876223e+00, 4.93797004e-01, 2.11040831e+00, 1.71614027e+00,
          2.02563858e+00, 2.26608682e+00, 2.37272573e+00, 3.56452584e-01,
          8.27061415e-01, 4.56991255e-01, 2.60467958e+00, 4.91021335e-01,
          2.96904087e+00, 8.93241763e-01, 2.10133266e+00, 8.36806118e-01,
          -2.45586857e-01, 4.97346640e-01, 1.17537689e+00,
          -3.00052106e-01, 6.92035496e-01, -5.94027787e-02,
          1.63185203e+00, 4.90859717e-01, 1.00439847e+00,
          -5.69703162e-01, -3.90489221e-01, 7.47389734e-01,
          1.65277664e-02, -6.12712681e-01, -3.20817947e-01,
          1.17030032e-01, 1.32630599e+00, 1.57740939e+00, 6.69703901e-01,
          -1.46222040e-01, 8.00492465e-02, 8.43329072e-01,
          -3.69326681e-01, 3.22007507e-01, 6.17254615e-01,
          4.06440049e-01, 2.12552786e+00, 6.00649774e-01, 5.92497301e+00,
          1.08008804e+01 ]
      - [ 1.74247205e+00, -4.33468848e-01, -4.31035161e-01,
          -2.44997635e-01, 8.96621421e-02, 2.15984449e-01,
          -5.43707192e-01, 5.77339709e-01, 4.52950820e-02,
          2.90861398e-01, -5.34315445e-02, -2.83773482e-01,
          2.45936528e-01, -5.60008883e-01, -6.82075202e-01,
          -3.18422377e-01, -1.84198216e-01, -3.45374465e-01,
          -6.18790686e-01, -4.76806700e-01, -4.24711943e-01,
          -3.95973884e-02, -3.95189196e-01, 5.49609244e-01,
          6.41684830e-02, -6.64392253e-03, 2.28619289e+00,
          -3.09472293e-01, -1.67449012e-01, 5.25216639e-01,
          -3.71717989e-01, -2.59033740e-01, -7.64244571e-02,
          -4.02488522e-02, -3.73052001e-01, -2.27057070e-01,
          -5.46612382e-01, 4.36437637e-01, 1.15373623e+00,
          -2.55198717e-01, -3.37966494e-02, 1.90994516e-01,
          3.29520732e-01, -1.05272815e-01, 3.71248811e-01,
          -2.38582104e-01, -2.06056491e-01, 5.87647259e-02,
          -1.35205328e+00, -3.16798687e-01, -3.72517884e-01,
          5.05237103e-01, -1.80501625e-01, 7.09492207e-01,
          -4.69947346e-02, 1.29086137e-01, -5.45837104e-01,
          1.09516874e-01, 2.04828948e-01, 3.10847044e-01,
          -1.88458636e-01, -2.21620679e-01, 8.17676559e-02,
          -3.60557288e-01, -6.60681188e-01, -5.31621218e-01,
          -2.36737728e-01, -5.75974226e-01, -6.01282775e-01,
          -5.01083612e-01, 2.55868286e-01, -4.07711208e-01,
          1.08712092e-01, 3.11514195e-02, 4.29894257e+00, 2.91313112e-01,
          -3.48316014e-01, -2.97047168e-01, -1.25723258e-01,
          5.15679419e-01, -4.69594896e-01, -2.25528646e-02,
          -2.29452208e-01, 4.49093580e-01, 5.89707978e-02,
          -2.29289562e-01, -4.62137721e-03, -3.52827191e-01,
          -3.91854495e-01, -3.08064371e-01, -1.24770410e-01,
          -4.91251573e-02, -2.86959767e-01, 8.29877183e-02,
          -4.95052457e-01, 2.97784090e-01, -2.20993951e-01,
          -1.85534000e-01, -2.46376102e-03, -2.06849128e-01,
          7.04104066e-01, 1.31559420e+00, 1.32867467e+00, 5.16795993e-01,
          1.27261090e+00, 3.64386261e-01, -3.37815732e-01,
          -3.02463681e-01, 2.72528380e-01, -5.46737552e-01,
          -4.03746188e-01, -6.82469547e-01, -1.72152057e-01,
          1.69216588e-01, -7.27240443e-02, -5.14988542e-01,
          -5.47452390e-01, -3.49375844e-01, -1.85958833e-01,
          1.65385738e-01, -5.48467636e-01, 2.78553700e+00,
          1.29947948e+00, 1.65886962e+00, -1.48561776e-01,
          7.36743033e-01, -4.75079685e-01, 5.78030646e-01,
          3.64507854e-01, -6.59971237e-01, 8.26154090e-03,
          2.16697979e+00, 1.85335815e-01, 3.82449538e-01,
          -2.35629484e-01, -5.78864157e-01, -3.38400841e-01,
          1.12122893e+00, -3.49126637e-01, -2.11930171e-01,
          1.53864110e+00, 9.33510303e-01, 3.90573770e-01, 1.32618439e+00,
          7.10898161e-01, 1.67251840e-01, 1.97582796e-01,
          -4.05429393e-01, -1.82567909e-01, 2.28238150e-01,
          3.62433761e-01, 8.77652049e-01, -4.91419107e-01,
          1.46954584e+00, 4.83526945e-01, -1.77784953e-02,
          5.43451071e-01, -5.99482000e-01, -5.21053135e-01,
          -2.35985935e-01, -3.98612440e-01, -2.82124043e-01,
          -5.28714538e-01, -1.55894771e-01, 1.72825083e-02,
          -3.15290064e-01, -3.76062602e-01, 4.32077914e-01,
          -5.25732012e-03, -2.62579918e-01, 2.50513744e+00,
          -3.97279054e-01, 4.68696803e-01, 6.55268431e-01,
          -2.61286408e-01, -4.34373140e-01, -3.60094875e-01,
          -5.53917229e-01, -5.50768256e-01, -5.20471513e-01,
          -2.28654191e-01, -3.77476364e-01, 2.74004668e-01,
          -1.67233557e-01, -5.05680203e-01, -2.58387566e-01,
          -2.56165296e-01, -4.08159345e-01, 5.92079759e-02,
          -2.53057420e-01, -2.70466477e-01, 1.32739455e-01 ]
      - [ 1.03677762e+00, 1.43572032e+00, -1.78251117e-01,
          1.03187191e+00, 8.13572025e+00, 2.69352198e+00, 1.73058355e+00,
          7.60983706e+00, 1.10919762e+01, 2.39940596e+00,
          -5.65030158e-01, 2.21352482e+00, 8.16566563e+00,
          -6.03051960e-01, 1.32882273e+00, 2.27033552e-02,
          2.52830648e+00, 1.70983481e+00, 1.78509951e+00, 8.15997601e-01,
          2.07686111e-01, 1.58945394e+00, 1.24201202e+00, 2.07506132e+00,
          1.90453202e-01, 1.94702363e+00, 1.85047483e+00, 1.18515148e+01,
          4.59304839e-01, 1.40755725e+00, -1.56105176e-01,
          1.92683816e+00, 2.89899290e-01, 1.90277874e+00, 9.30932313e-02,
          4.10380810e-01, 2.95177007e+00, 8.14411640e+00, 2.89648223e+00,
          4.25911379e+00, 5.35554981e+00, 8.91852474e+00, 4.24690008e+00,
          4.40381289e+00, 2.72042465e+00, 5.05111313e+00, 2.87157726e+00,
          1.68978119e+00, 6.61614612e-02, 7.28694499e-01, 1.44000459e+00,
          -3.81786525e-01, 5.57626677e+00, 9.11191821e-01,
          4.46678877e+00, 5.03505290e-01, 8.61757946e+00, 3.36716503e-01,
          7.41426373e+00, -3.84340465e-01, 8.16374493e+00,
          7.51046181e-01, 8.89664078e+00, 1.41569412e+00, 3.51149058e+00,
          2.35692072e+00, 6.32554197e+00, 3.42166591e+00,
          -7.63857067e-02, 1.54188013e+00, 3.55528641e+00,
          1.30219936e+00, -2.67884761e-01, -3.25246722e-01,
          -3.84323269e-01, 4.85863876e+00, 2.09854960e+00,
          3.10595298e+00, -1.45595282e-01, 5.75700188e+00,
          1.31394911e+00, 3.01635891e-01, 2.90044218e-01, 1.17020583e+00,
          1.05902708e+00, 1.80821061e+00, 1.43089855e+00, 1.61595903e-02,
          1.90777218e+00, -4.59345102e-01, 6.83337986e-01,
          3.53718191e-01, 2.15101695e+00, 3.45003796e+00, 6.05279875e+00,
          3.34686542e+00, -6.81619406e-01, -3.01954150e-01,
          2.76207113e+00, 5.54889441e-01, 1.31485045e+00, 6.49555206e-01,
          5.26300907e+00, 2.95676112e+00, -1.89086258e-01,
          1.66931804e-02, 5.60221291e+00, 3.80886149e+00, 1.04694295e+00,
          -5.64943314e-01, 7.71968722e-01, 1.06902444e+00,
          1.58995926e-01, 1.09327233e+00, 5.45397997e-01,
          -4.71653014e-01, -5.23336589e-01, 6.88175142e-01,
          -3.54448974e-01, -4.31813598e-01, -2.22715084e-02,
          6.33360445e-01, 2.77266932e+00, 2.35445476e+00, 1.70361578e+00,
          2.62130070e+00, 4.57124424e+00, 7.26344061e+00, 1.33675122e+00,
          3.89966774e+00, 8.09449863e+00, 8.21041679e+00, 2.28757191e+00,
          3.34697628e+00, 5.64633942e+00, 4.45007467e+00,
          -4.48391050e-01, -9.25754681e-02, -2.18938202e-01,
          1.32118493e-01, 6.05748534e-01, 1.71876419e+00, 2.42232180e+00,
          1.03823757e+00, 2.43045378e+00, 3.94000363e+00, 3.76750350e+00,
          3.33527350e+00, 6.07311153e+00, -1.91350222e-01,
          5.89096212e+00, 2.43160415e+00, 1.02219458e+01, 3.16173658e-02,
          7.80268002e+00, 1.02288926e+00, 6.49231768e+00,
          -1.69074267e-01, 4.94332314e+00, 9.29073989e-01,
          6.72383785e-01, 1.69627452e+00, 1.63155329e+00, 1.26764607e+00,
          -4.54882383e-01, 7.89977968e-01, -2.34062374e-01,
          2.42203641e+00, 2.29876494e+00, -3.91588628e-01,
          2.45764092e-01, 1.18852413e+00, 3.19756269e-01, 7.43934691e-01,
          5.12608957e+00, -3.65471214e-01, -6.54184997e-01,
          1.34859061e+00, 4.05516386e+00, 1.03588927e+00, 3.77284706e-01,
          5.46129346e-01, 2.47647476e+00, 4.55678672e-01,
          -4.13816750e-01, 9.63518500e-01, -4.53054458e-01,
          -7.17865452e-02, -3.39240760e-01, 3.56980705e+00,
          2.57599211e+00, 1.47331452e+00 ]
      - [ 1.77388144e+00, -5.19615531e-01, -4.20141459e-01,
          3.77071500e-01, -5.04100561e-01, 1.26058266e-01,
          -5.04354239e-01, -4.28484470e-01, -2.43179619e-01,
          -5.99622130e-01, -4.31231707e-01, -8.73432402e-03,
          -5.38203955e-01, 7.66783834e-01, 9.68080200e-03,
          -4.37734038e-01, -2.12381989e-01, -3.22263956e-01,
          -5.60465395e-01, -3.34456205e-01, -2.71700382e-01,
          -9.56242308e-02, 3.82429749e-01, -4.71045882e-01,
          1.63034546e+00, 7.66962767e-01, 4.54644537e+00, 1.68831587e+00,
          3.36773324e+00, -4.22373325e-01, 2.43102646e+00,
          -2.71274149e-01, 6.51818335e-01, 6.06794953e-01,
          1.58501875e+00, 2.25234106e-01, 9.74938571e-01,
          -4.77638453e-01, 1.47785866e+00, -3.61965895e-01,
          1.74906349e+00, 1.32461801e-01, 9.62084711e-01,
          -3.79727274e-01, -2.32349951e-02, -3.46560776e-01,
          1.09227590e-01, -1.49854034e-01, -1.60842860e+00,
          7.18792617e-01, 3.01612258e-01, -7.30570126e-03,
          -1.39830364e-02, -3.74810278e-01, -1.65106535e-01,
          2.84893394e-01, -5.15791655e-01, 5.09836614e-01,
          -2.28536874e-01, -5.11291325e-01, -3.47603142e-01,
          2.98285812e-01, -3.60209405e-01, -5.34649014e-01,
          1.00104499e+00, -5.53169549e-01, -2.56074041e-01,
          6.32272720e-01, 5.30060410e-01, 7.97842979e-01, 3.55769098e-01,
          2.61663496e-01, 8.66358504e-02, -2.23617464e-01,
          8.29181969e-02, 4.27838707e+00, -1.23982400e-01,
          -3.54387701e-01, -1.82872131e-01, -3.24405998e-01,
          -4.09533501e-01, -3.69268730e-02, -1.30097136e-01,
          -5.74602544e-01, 1.42741233e-01, -2.04697445e-01,
          2.04746053e-01, -4.46871758e-01, -5.52899182e-01,
          -2.26834878e-01, -5.23083359e-02, -3.01888138e-01,
          1.48591518e-01, -2.07206845e-01, -1.34401649e-01,
          -4.94646519e-01, -1.04230130e+00, -4.36069489e-01,
          -1.78776577e-01, 8.43231678e-01, -3.31485331e-01,
          4.26957399e-01, -3.54454458e-01, -3.84171396e-01,
          9.11653757e-01, -6.12477819e-03, 6.70918375e-02,
          -1.62179291e-01, -6.91239163e-02, 3.05182278e-01,
          1.05942929e+00, -7.83210993e-03, 4.15742606e-01,
          -7.03314722e-01, -3.75133097e-01, -1.86523259e-01,
          -4.87916201e-01, -4.14651543e-01, 3.64871025e-01,
          -2.29488939e-01, 1.03614163e+00, -3.17679197e-01,
          4.14004135e+00, 1.75818181e+00, 2.85492182e+00, 2.26676568e-01,
          6.81050837e-01, 1.03863679e-01, -1.92339018e-01,
          6.37628064e-02, -2.78786242e-01, -6.26358390e-01,
          -1.95880070e-01, -1.75158441e-01, 1.85252696e-01,
          -5.96212685e-01, 5.68324365e-02, -1.79849401e-01,
          -2.26806015e-01, -4.93278176e-01, -2.25108698e-01,
          -5.41009665e-01, -8.36137012e-02, 1.24609388e-01,
          2.77479678e-01, -6.48486465e-02, -3.86203229e-01,
          4.95943993e-01, 2.78994799e-01, 5.81891000e-01,
          -4.71505195e-01, -1.17321067e-01, -1.35894201e-03,
          3.60153019e-02, -3.45729679e-01, -1.99652404e-01,
          -2.46590987e-01, 9.13581312e-01, -6.25989676e-01,
          -1.37996465e-01, 1.35446802e-01, -2.52791375e-01,
          -4.38919902e-01, -5.24610460e-01, -1.06147476e-01,
          -1.38997495e-01, 3.05747896e-01, -4.49966162e-01,
          2.12830353e+00, 1.69176650e+00, 6.87303209e+00, 3.93580031e+00,
          4.11807013e+00, 1.03090480e-01, 1.46986508e+00,
          -5.14360368e-01, 1.90853477e-01, 1.74491897e-01,
          5.31777620e-01, -6.48872256e-02, -1.44722462e-01,
          -3.25581074e-01, 1.42297521e-01, -5.29006243e-01,
          5.41030049e-01, -4.66542035e-01, 4.07996953e-01,
          -2.75007486e-01, -2.24688932e-01, -3.96720767e-01,
          3.50160599e-02, -2.26213083e-01 ]
      - [ 6.02355301e-01, 5.76657474e-01, -1.82004690e-01,
          -3.60673100e-01, -1.50691539e-01, 7.46538818e-01,
          5.72261810e-01, -5.73736846e-01, -4.93301183e-01,
          -2.72876531e-01, 2.79164821e-01, 3.32201123e-01,
          4.29822505e-03, -1.64036319e-01, 3.93298888e+00,
          2.30097994e-01, -2.16342390e-01, 1.85807686e+01,
          5.96625662e+00, 7.39595592e-01, 8.09468806e-01, 1.60598779e+00,
          1.67822707e+00, 2.58674711e-01, 5.28861821e-01, 6.64510965e-01,
          3.16153526e-01, 1.20870483e+00, -2.99840510e-01,
          2.58066034e+00, 1.08922493e+00, 2.02994013e+00, 4.40206814e+00,
          1.64561927e+00, 2.37665253e+01, 1.75772896e+01, 6.00429869e+00,
          6.82295847e+00, 3.94276404e+00, 2.50958610e+00, 1.21649638e-01,
          1.10241115e+00, 8.28666449e-01, -7.97009543e-02,
          -3.06549668e-01, 4.83481914e-01, -7.55200833e-02,
          -1.54040471e-01, 1.16757989e-01, 1.52766609e+00,
          -7.13783428e-02, 5.05002320e-01, 2.11444759e+00,
          7.80197740e-01, -2.20476344e-01, 1.03840792e+00,
          1.06524885e+00, -2.95061767e-01, 2.04183960e+00,
          1.10978234e+00, 1.51540208e+00, -1.14223972e-01,
          1.25559270e+00, 4.28121758e+00, 3.39426756e+00, 1.46262932e+01,
          6.45291185e+00, 1.49892822e-01, -5.83204031e-01,
          -3.10678452e-01, -1.50701106e-01, -1.78243786e-01,
          -2.05343798e-01, -9.19408202e-02, -3.09317037e-02,
          9.05484483e-02, -1.68230161e-01, 1.19022954e+00,
          -5.35905540e-01, 3.30875301e+00, 4.29601133e-01,
          2.68858224e-01, 1.72354870e+01, 1.11259794e+01, 2.94708300e+00,
          2.15939927e+00, 2.48629260e+00, 2.25330734e+00,
          -5.26950538e-01, 6.33481145e-01, -1.32496655e-01,
          1.32070974e-01, -6.00750325e-03, -4.67288882e-01,
          -1.93851382e-01, 1.78093538e-01, -1.11517537e+00,
          6.69860780e-01, -5.11213660e-01, 4.38027084e-01,
          -3.46962631e-01, 5.42482674e-01, 1.15145080e-01,
          1.58058450e-01, 2.77865738e-01, -5.61863422e-01,
          -3.05614650e-01, -6.35650039e-01, -3.27748597e-01,
          -5.14980495e-01, 3.05315882e-01, -4.02893841e-01,
          -3.60960722e-01, 3.38557172e+00, -1.99069038e-01,
          -6.02132022e-01, -2.46664628e-01, 1.38221443e-01,
          -2.09346965e-01, -1.79627195e-01, 5.40222585e-01,
          -4.63105999e-02, -2.62306362e-01, 1.47361666e-01,
          -3.63752693e-01, -3.26800831e-02, 8.56682807e-02,
          -2.16760188e-01, 1.04490399e+00, 3.05311394e+00,
          3.77882838e+00, 5.90015292e-01, 1.76712334e-01, 6.36654794e-01,
          9.07612741e-01, 4.44689333e-01, -4.45892960e-01,
